%YAML:1.0
---
opencv_ml_svm:
   format: 3
   svmType: C_SVC
   kernel:
      type: LINEAR
   C: 6.2500000000000000e+01
   term_criteria: { iterations:100 }
   var_count: 32
   class_count: 35
   class_labels: !!opencv-matrix
      rows: 35
      cols: 1
      dt: i
      data: [ 0, 1, 2, 3, 4, 5, 6, 7, 8, 9, 10, 11, 12, 13, 14, 15, 16,
          17, 18, 19, 20, 21, 22, 23, 24, 25, 26, 27, 28, 29, 30, 31, 32,
          33, 34 ]
   sv_total: 595
   support_vectors:
      - [ 1.60598949e-01, 3.73417169e-01, 3.73417169e-01, 1.60598949e-01,
          -5.12340143e-02, -4.29577559e-01, -4.35489148e-01,
          -6.30572513e-02, -4.53223959e-02, -3.76372993e-01,
          -3.76372993e-01, -3.94107811e-02, 1.13306016e-01,
          2.55184829e-01, 2.55184829e-01, 1.25129253e-01, 1.06803226e+00,
          -9.79357958e-01, -8.37479174e-01, 7.48804927e-01,
          1.77348509e-01, -1.77348509e-01, -1.83260128e-01,
          1.83260202e-01, -5.20222306e-01, -5.37957132e-01,
          5.32046296e-02, 3.54697034e-02, -5.32044768e-02,
          -3.54697034e-02, -1.61781263e+00, 1.61781251e+00 ]
      - [ 1.05870858e-01, 9.49329138e-01, 8.69513273e-01,
          -1.67783588e-01, -1.35485768e-01, 9.49329231e-03,
          -6.38527036e-01, -4.16724533e-01, -1.14590205e-01,
          -1.78721532e-01, -6.46214545e-01, -4.80855852e-02,
          -1.18304923e-01, -1.18511327e-01, 6.45440638e-01,
          3.30204959e-03, 1.75692976e+00, -1.18124402e+00,
          -9.87611890e-01, 4.11926419e-01, -2.62510300e-01,
          6.61589682e-01, 2.30212465e-01, -6.29291832e-01,
          -5.27548373e-01, -1.10333705e+00, 9.29207563e-01,
          -3.53521824e-01, -5.30127943e-01, -4.55575436e-02,
          -1.45396984e+00, 1.45397079e+00 ]
      - [ 2.44343411e-02, 1.28545666e+00, 1.26980448e+00, 5.57385907e-02,
          -1.97492868e-01, -8.10581297e-02, -9.39126909e-02,
          -2.54506171e-01, -2.15942472e-01, -4.81886834e-01,
          -4.81886834e-01, -2.03087911e-01, -2.03619093e-01,
          -1.14239179e-01, -1.29891306e-01, -1.77909955e-01,
          2.63543391e+00, -6.26969874e-01, -1.38280404e+00,
          -6.25659645e-01, -5.92620254e-01, 6.08272493e-01,
          5.64113677e-01, -5.79765201e-01, -7.16420650e-01,
          -7.23679960e-01, 1.03134000e+00, 9.77124095e-01,
          -1.01568758e+00, -9.92776096e-01, -1.13874459e+00,
          1.13874495e+00 ]
      - [ 1.67479768e-01, 2.02531040e-01, -2.16393676e-02,
          1.67479768e-01, 6.73518628e-02, -2.46461377e-01,
          -2.49078244e-01, 1.64862886e-01, -1.38634309e-01,
          -2.72725195e-01, -2.78952152e-01, -1.04882635e-01,
          1.46544799e-01, 2.09349707e-01, 3.49949412e-02, 1.51778534e-01,
          5.15851200e-01, -2.63324887e-01, -7.95194268e-01,
          5.42667985e-01, 2.42742077e-01, -1.07305810e-01,
          -5.14674842e-01, 3.79238576e-01, -2.06155211e-01,
          -2.07778871e-01, 1.90901324e-01, 6.16250299e-02,
          -5.54649793e-02, -1.97061375e-01, -1.04721689e+00,
          1.04721713e+00 ]
      - [ 3.31935674e-01, 4.51771379e-01, 1.01651919e+00, 3.17073882e-01,
          -2.48060644e-01, -9.06955659e-01, -4.60715383e-01,
          -1.43254772e-01, 6.36501536e-02, -4.19996768e-01,
          -4.05134976e-01, -1.15077928e-01, -8.11009407e-02,
          9.64805603e-01, -2.24137202e-01, -1.41321421e-01,
          2.11730027e+00, -1.75898647e+00, -8.76559556e-01,
          5.18246114e-01, 6.64239973e-02, 8.96245986e-02,
          -7.34683052e-02, -8.25802907e-02, -1.12147653e+00,
          -6.44739091e-01, -3.71309102e-01, 7.29622900e-01,
          5.27358055e-01, -8.85671496e-01, -2.19280267e+00,
          2.19280314e+00 ]
      - [ 1.96007624e-01, 3.06261569e-01, 3.06261569e-01, 2.24209040e-01,
          8.62637237e-02, -1.01219475e+00, -1.07166064e+00,
          -1.17272593e-01, 1.73931167e-01, -5.33405721e-01,
          -7.59018481e-01, 3.59858610e-02, 2.27909863e-01,
          2.10631466e+00, -1.21611245e-01, -4.79808711e-02,
          1.03273976e+00, -2.11486411e+00, -1.08250725e+00,
          2.16463232e+00, 6.84111834e-01, 8.66975486e-01,
          -1.64602852e+00, 9.49412212e-02, -1.62318635e+00,
          -1.15294731e+00, -4.23661232e-01, -6.58463001e-01,
          1.97475016e+00, -8.92624736e-01, -3.37627959e+00,
          3.37628078e+00 ]
      - [ -1.13562465e-01, 4.34955865e-01, 4.34955865e-01,
          2.78371751e-01, -1.22727878e-01, 4.34955861e-03,
          -1.48664698e-01, -2.39546761e-01, -1.99468151e-01,
          -3.95741016e-01, -4.76830870e-01, 1.29240766e-01,
          -2.83508688e-01, 1.04695186e-01, 3.41207206e-01,
          2.52274424e-01, 1.03472102e+00, -5.06589830e-01,
          -9.42799330e-01, 4.14668113e-01, -7.19267249e-01,
          1.48259580e-01, 1.50667459e-01, 4.20340210e-01,
          -3.33769351e-01, -5.49542665e-01, 2.03015149e-01,
          3.25116128e-01, -7.74022698e-01, 2.45891482e-01,
          -1.01688695e+00, 1.01688743e+00 ]
      - [ 2.60458678e-01, 9.28451121e-01, 7.17216790e-01, 2.07650095e-01,
          1.57260954e-01, -9.74539101e-01, -1.00336277e+00,
          7.32092634e-02, 1.33275956e-01, -8.99955988e-01,
          -8.73551667e-01, 1.35695308e-01, 1.61890626e-01,
          4.04786170e-01, 3.51977497e-01, 2.19537988e-01, 2.11377668e+00,
          -1.74743187e+00, -1.50453651e+00, 1.13819194e+00,
          7.12885559e-01, -5.41257918e-01, -8.07720244e-01,
          6.36093020e-01, -1.36809409e+00, -1.53377783e+00,
          3.71631622e-01, -5.28671406e-03, -2.00002879e-01,
          -1.66340902e-01, -3.75140929e+00, 3.75141048e+00 ]
      - [ -1.52442949e-02, 3.21014017e-01, 2.20081306e+00,
          2.77711421e-01, 8.29322934e-02, -7.56277442e-01,
          -7.32389152e-01, -1.37833804e-01, 1.02181602e-02,
          -7.02729106e-01, -6.53903067e-01, -1.11321971e-01,
          5.37970215e-02, 4.19770405e-02, 4.19770405e-02, 7.92593956e-02,
          2.78429413e+00, -1.54356825e+00, -1.45773590e+00,
          2.17010245e-01, 1.31702766e-01, -1.09601510e+00,
          8.56497705e-01, 1.07815288e-01, -1.34616554e+00,
          -1.10360956e+00, -3.67575198e-01, 1.60830140e+00,
          -5.96736491e-01, -6.43988490e-01, -2.84529901e+00,
          2.84529996e+00 ]
      - [ 2.46799171e-01, 3.66711557e-01, 2.29598522e-01,
          -6.05231300e-02, -6.13949299e-02, -3.79114628e-01,
          -3.21506381e-01, 3.49093787e-02, -5.75386919e-02,
          -3.34952414e-01, -2.68759936e-01, 5.97903989e-02,
          2.15949282e-01, 2.89586812e-01, 1.38289690e-01,
          -9.78446305e-02, 7.82586098e-01, -7.27106571e-01,
          -6.01460636e-01, 5.45981109e-01, 3.43814760e-01,
          -5.77686764e-02, -2.22378135e-01, -6.36679605e-02,
          -4.98919964e-01, -5.01032650e-01, 1.73001200e-01,
          -1.17521673e-01, 1.13045007e-01, -1.68524474e-01,
          -1.30433321e+00, 1.30433345e+00 ]
      - [ 3.71064954e-02, 1.02455568e+00, 1.02455568e+00, 8.46918300e-02,
          -1.19196542e-01, -9.17668104e-01, -9.19982851e-01,
          -6.03787564e-02, 4.17359024e-02, -4.84429985e-01,
          -4.20982927e-01, 1.55083016e-01, 1.13759831e-01,
          2.48620749e-01, 1.37588352e-01, 5.49421050e-02, 2.17090988e+00,
          -2.01722670e+00, -7.08594143e-01, 5.54910719e-01,
          7.34053850e-02, -1.28921643e-01, -1.78821564e-01,
          2.34338313e-01, -1.24660242e+00, -1.20596111e+00,
          2.47974414e-02, 1.28885731e-01, -8.03134665e-02,
          -7.33694732e-02, -2.74306393e+00, 2.74306512e+00 ]
      - [ 4.64654993e-03, -9.35922265e-02, -9.35922265e-02,
          3.39852981e-02, -6.76950812e-01, -5.64241886e-01,
          -5.86777031e-01, -5.45988023e-01, -6.54415607e-01,
          1.96012750e-01, 1.96012750e-01, -4.26508486e-01,
          -1.46295965e-01, 1.77347398e+00, 1.77347398e+00,
          -1.89242199e-01, -1.48552448e-01, -2.37395740e+00,
          -6.88898742e-01, 3.21140981e+00, -1.47301602e+00,
          1.31165254e+00, 1.28911734e+00, -1.12775350e+00,
          -5.52824855e-01, -5.03075063e-01, -1.33013809e+00,
          -1.19237185e+00, 1.16877520e+00, 1.35373569e+00,
          -7.58993387e-01, 7.58994460e-01 ]
      - [ 2.92366445e-02, 1.69771636e+00, 1.69771636e+00, 2.92366445e-02,
          -2.91535437e-01, -1.43681288e+00, -1.46847475e+00,
          -3.54859233e-01, 1.51299432e-01, 2.29241513e-02,
          2.29241513e-02, 1.82961330e-01, -7.72110149e-02,
          -4.03996617e-01, 1.24654248e-01, 7.42212459e-02,
          3.45390630e+00, -3.55168247e+00, 3.80108893e-01,
          -2.82331735e-01, -1.88211411e-01, -1.20168865e-01,
          3.76819879e-01, -6.84404373e-02, -1.31043065e+00,
          -1.49352503e+00, -1.39468384e-03, -9.63808298e-02,
          -3.06983918e-01, 4.04760689e-01, -2.85943937e+00,
          2.85944057e+00 ]
      - [ -5.82785308e-01, 2.81800687e-01, 3.13919246e-01,
          -2.61599392e-01, -1.33197695e-01, -5.78207314e-01,
          -5.94193995e-01, -1.65170938e-01, -6.90331087e-02,
          -3.21912587e-01, -3.21912587e-01, -5.30464835e-02,
          -4.06925660e-03, 1.23075247e+00, 1.23075247e+00,
          2.79040001e-02, -2.48664886e-01, -1.47076988e+00,
          -7.65904725e-01, 2.48533988e+00, -7.89085567e-01,
          6.12433314e-01, 6.28565192e-01, -4.51912701e-01,
          -1.45500112e+00, -1.18177521e+00, -1.01238966e+00,
          -7.07045138e-01, 8.35737705e-01, 8.83697391e-01,
          -1.81622648e+00, 1.81622756e+00 ]
      - [ -4.63141799e-01, -1.29918873e-01, -1.90257616e-02,
          -2.78319955e-01, -1.41742066e-01, -3.34717840e-01,
          -3.41920465e-01, 3.61353934e-01, -7.90928677e-02,
          -2.05206633e-01, -2.05206633e-01, 4.82575357e-01,
          -1.51119038e-01, 5.48486054e-01, 5.39245009e-01,
          4.17751789e-01, -8.90406191e-01, -4.57026422e-01,
          -6.93079270e-03, 1.35436380e+00, -8.35096121e-01,
          -1.21357180e-01, -2.69078892e-02, 9.83361185e-01,
          -5.85314512e-01, -9.76566136e-01, -1.06952047e+00,
          -2.77912349e-01, 1.13067649e-01, 1.23436546e+00,
          -1.08705163e+00, 1.08705223e+00 ]
      - [ -9.95687172e-02, -1.96777154e-02, -1.96777154e-02,
          -1.25934640e-02, -4.04178143e-01, -3.91584516e-01,
          -4.34875280e-01, -9.93716940e-02, -2.73912132e-01,
          4.32907492e-01, -1.52403116e+00, 3.03035229e-02,
          7.59556890e-02, 3.41977262e+00, -4.50617254e-01,
          -2.28850454e-01, -1.51517332e-01, -1.33000994e+00,
          -1.33473217e+00, 2.81626105e+00, -7.01704144e-01,
          3.44141793e+00, -2.42920136e+00, -3.10511827e-01,
          -2.24403524e+00, 6.13945648e-02, -9.15008366e-01,
          -5.66518843e-01, 3.65472388e+00, -2.17319489e+00,
          -1.91758358e+00, 1.91758478e+00 ]
      - [ -4.56557453e-01, 1.75104260e-01, 1.75104260e-01,
          -4.56557453e-01, 1.07731998e+00, -5.66873193e-01,
          -5.84419370e-01, 9.47456956e-01, 1.00009549e+00,
          -4.08957750e-01, -4.08957750e-01, 1.01764154e+00,
          -5.96926749e-01, -1.75818920e-01, -1.75818920e-01,
          -5.61834395e-01, -5.62906384e-01, 8.73484492e-01,
          1.19982159e+00, -1.51039898e+00, 1.02393115e+00,
          -9.76545513e-01, -9.94091630e-01, 9.46706712e-01,
          -1.99422264e+00, -2.04686117e+00, 2.28993610e-01,
          8.15843791e-02, -1.81607768e-01, -1.28969520e-01,
          -1.96920800e+00, 1.96920896e+00 ]
      - [ 3.59195620e-01, 5.61243117e-01, 5.61243117e-01,
          -1.09220728e-01, 3.64808053e-01, 5.61243156e-03, 0.,
          -2.77344912e-01, 2.74825305e-01, -3.94708589e-02,
          -3.94708589e-02, -2.45335683e-01, -4.50465232e-01,
          -3.15766871e-01, -3.92242998e-01, -2.57609516e-01,
          1.37246120e+00, 9.30755660e-02, -4.94520850e-02,
          -1.41608477e+00, 5.48363686e-01, 2.11617813e-01,
          1.29529282e-01, -8.89510930e-01, 6.77276999e-02,
          -5.99156797e-01, 1.29085934e+00, 1.74677432e-01,
          -5.30877650e-01, -9.34659064e-01, -7.33292848e-02,
          7.33289644e-02 ]
      - [ -2.56004065e-01, -6.33357465e-03, -6.33357465e-03,
          -2.56004065e-01, 3.80807698e-01, -4.33978260e-01,
          -3.63928646e-01, 4.36923385e-01, 1.91781417e-01,
          -4.13552374e-01, -4.76540059e-01, 2.61704355e-01,
          -5.25371954e-02, 5.40826082e-01, 5.05832911e-01,
          -5.26638590e-02, -5.24675250e-01, 1.98241621e-02,
          -4.36606616e-01, 9.41457987e-01, 2.64047712e-01,
          -3.13038111e-01, -3.40969384e-01, 3.89959782e-01,
          -1.21918643e+00, -1.08602214e+00, -3.15508187e-01,
          -1.89342991e-01, 2.66517907e-01, 2.38333285e-01,
          -1.68799925e+00, 1.68799949e+00 ]
      - [ -4.99380678e-01, -2.56141335e-01, -2.56141335e-01,
          -4.99380678e-01, 3.46001595e-01, -8.64239633e-02,
          -9.31806192e-02, -2.54549593e-01, 4.45938855e-01,
          6.75664917e-02, 6.75664917e-02, -1.99568823e-01,
          3.78372371e-01, 5.40531933e-01, 5.40531933e-01,
          -2.41742536e-01, -1.51104403e+00, -8.81526545e-02,
          3.81502986e-01, 1.21769369e+00, 6.70932055e-01, 2.65533119e-01,
          2.58776486e-01, -1.19524133e+00, -7.59980798e-01,
          -1.46622434e-01, -4.95944321e-01, -1.10325229e+00,
          1.43240964e+00, 1.66786999e-01, -4.44716029e-02,
          4.44718562e-02 ]
      - [ -1.39946744e-01, 2.72777587e-01, 2.72777587e-01,
          -1.39946744e-01, 5.00566661e-01, -6.00110710e-01,
          -6.29048824e-01, 6.61110103e-01, 5.20768046e-01,
          -4.79456037e-01, -5.31876743e-01, 6.45810843e-01,
          -2.31663272e-01, 4.34862897e-02, 4.34862897e-02,
          -2.08734140e-01, 2.65661657e-01, -6.74827397e-02,
          1.55246049e-01, -3.53424817e-01, 6.49724483e-01,
          -7.63303041e-01, -8.44662011e-01, 9.58240092e-01,
          -1.48066819e+00, -1.48011494e+00, 3.32868807e-02,
          1.64892048e-01, -1.46865129e-01, -5.13137989e-02,
          -2.24049211e+00, 2.24049211e+00 ]
      - [ -1.91781923e-01, 3.12902331e-01, 3.12902331e-01,
          -1.91781923e-01, 5.19196093e-01, -9.44299698e-01,
          -3.48479539e-01, 7.74297714e-01, 8.16354752e-01,
          -1.86509475e-01, -8.39908600e-01, 4.81894225e-01,
          -3.03933978e-01, 3.25221941e-02, 3.25221941e-02,
          -2.75895983e-01, 2.42240846e-01, 7.14661903e-04,
          2.71830797e-01, -5.14785588e-01, 8.39834690e-01,
          -7.85384655e-01, -8.42963636e-01, 7.88514018e-01,
          -2.25188637e+00, -1.03070474e+00, -3.03983212e-01,
          5.46938539e-01, 3.58433604e-01, -6.01388156e-01,
          -2.31919742e+00, 2.31919861e+00 ]
      - [ 1.47192836e+00, 3.85228205e+00, 3.85228205e+00, 1.12933147e+00,
          -6.54965639e-02, -1.53742480e+00, -1.71298659e+00,
          -7.40219951e-02, 2.81364769e-01, 4.26309295e-02,
          4.26309295e-02, 4.56926495e-01, -7.89058805e-01,
          -3.08492589e+00, -3.08492589e+00, -7.80532241e-01,
          1.03058243e+01, -3.38992906e+00, 8.23552549e-01,
          -7.73944283e+00, 8.98735464e-01, -7.27438211e-01,
          -9.02999938e-01, 7.31704950e-01, -8.03398132e-01,
          -1.33008337e+00, 3.72129130e+00, 3.19460154e+00,
          -3.54998946e+00, -3.36590099e+00, -3.16514945e+00,
          3.16515732e+00 ]
      - [ -2.91694969e-01, 8.22285935e-02, 8.22285935e-02,
          -2.91694969e-01, -1.01974189e-01, -4.31970447e-01,
          -4.42357212e-01, 5.34810305e-01, -1.15498669e-01,
          -3.74356359e-01, -2.54800349e-01, 6.95913374e-01,
          -1.83499530e-01, -2.33107120e-01, 7.23340929e-01,
          6.02432489e-01, -4.18932736e-01, -4.41491514e-01,
          -4.87420671e-02, 9.09166753e-01, -6.92667484e-01,
          -9.57205415e-01, 1.08411893e-01, 1.54146111e+00,
          -3.76033336e-01, -1.29190803e+00, -7.43411124e-01,
          -1.17013417e-01, -9.06461537e-01, 1.76688635e+00,
          -1.50348437e+00, 1.50348532e+00 ]
      - [ 6.06729388e-01, 1.55179286e+00, 1.55179286e+00, 1.95919347e+00,
          1.39224485e-01, -8.53923202e-01, -2.70492792e+00,
          3.01397771e-01, 5.81378341e-02, -8.10866416e-01,
          -2.25993490e+00, -6.99180424e-01, 1.92772329e-01,
          2.75388747e-01, 2.75388747e-01, 4.17017311e-01, 5.66950655e+00,
          -3.11822963e+00, -3.71184444e+00, 1.16056788e+00,
          9.96862948e-01, 1.62393361e-01, -3.13768244e+00,
          1.97842765e+00, -2.09011149e+00, -1.36382842e+00,
          1.44382572e+00, 1.10745680e+00, -2.84566492e-01,
          -2.26671028e+00, -6.62965202e+00, 6.62965250e+00 ]
      - [ -1.47909865e-01, 3.09686303e-01, 3.09686303e-01,
          -1.47909865e-01, -5.10750823e-02, -4.43960726e-01,
          -5.88866174e-01, 6.80616617e-01, -6.23994544e-02,
          -4.13685411e-01, -9.30445611e-01, 1.90665111e-01,
          6.28617480e-02, 1.03536963e-01, 9.20738995e-01, 2.08460510e-01,
          3.23552877e-01, -4.03285533e-01, -1.21586525e+00,
          1.29559815e+00, -1.98522732e-01, -4.44422871e-01,
          -2.88886487e-01, 9.31832433e-01, -1.31385553e+00,
          -1.08759964e+00, -3.33259225e-01, 2.53526747e-01,
          -3.09686035e-01, 3.89419019e-01, -2.37695789e+00,
          2.37695837e+00 ]
      - [ -4.79563065e-02, 1.96542546e-01, 1.26796126e+00,
          8.23513344e-02, -2.23354176e-01, -7.11107194e-01,
          -3.18529904e-01, -1.04216672e-01, -1.96051121e-01,
          -1.75807282e-01, -6.53602123e-01, -1.54269502e-01,
          -2.02438477e-02, 1.01147330e+00, 9.93195325e-02,
          -5.25095873e-02, 1.49889886e+00, -1.35720801e+00,
          -1.17973006e+00, 1.03803933e+00, -4.87605542e-01,
          3.21101367e-01, 3.95148754e-01, -2.28644416e-01,
          -1.46517515e+00, -4.32229787e-01, -7.85875201e-01,
          9.27565932e-01, 6.19371235e-01, -7.61061609e-01,
          -1.85904646e+00, 1.85904670e+00 ]
      - [ -5.02435230e-02, 3.34583104e-01, 3.34583104e-01,
          2.14133188e-01, -2.23148838e-01, -2.72046596e-01,
          -2.25821778e-01, -9.52657126e-03, -2.19803005e-01,
          -2.41934106e-01, -2.41934106e-01, -5.12217321e-02,
          -7.70101696e-02, 2.67666489e-01, 2.67666489e-01,
          1.94058210e-01, 8.33055854e-01, -7.30543792e-01,
          -7.54893005e-01, 6.52381003e-01, -5.70205629e-01,
          8.82688910e-02, 1.34493664e-01, 3.47443074e-01,
          -3.70165974e-01, -3.30632925e-01, -2.10855871e-01,
          3.13367903e-01, -2.71080822e-01, 1.68568835e-01,
          -9.81736660e-01, 9.81736898e-01 ]
      - [ -1.06948984e+00, 8.85671377e-01, 8.85671377e-01,
          5.21376491e-01, 2.96198606e+00, -1.02520645e+00,
          -1.13633311e+00, -8.39716554e-01, 3.01629615e+00,
          -2.50661653e-02, -2.50661653e-02, -5.65659940e-01,
          -1.50397015e+00, -3.14162612e-01, -1.33686244e+00,
          -4.29467052e-01, 1.22322953e+00, -3.92700583e-02,
          2.40050340e+00, -3.58446360e+00, 3.40482092e+00,
          -4.78763878e-01, -1.61258984e+00, -1.31346655e+00,
          -2.54922986e+00, -2.14399338e+00, 1.75296104e+00,
          -5.69002330e-01, 1.17309749e+00, -2.35705471e+00,
          -2.21167207e+00, 2.21167135e+00 ]
      - [ -9.09534320e-02, 1.98228300e-01, 3.29234451e-01,
          2.19094455e-01, 1.17712885e-01, -2.62955815e-01,
          -3.88651580e-01, -4.63412032e-02, 8.62012655e-02,
          -2.45246261e-01, -3.67518663e-01, -6.32158890e-02,
          -7.90383816e-02, 1.34128168e-01, 2.60767430e-01,
          1.98554352e-01, 6.55603707e-01, -5.80235660e-01,
          -5.89779556e-01, 5.14411509e-01, 3.39222625e-02,
          -1.75845623e-01, -1.66168392e-01, 3.08091700e-01,
          -5.22873580e-01, -4.93841767e-01, -3.79680507e-02,
          1.13336056e-01, -1.03955224e-01, 2.85871737e-02,
          -1.26437223e+00, 1.26437235e+00 ]
      - [ -4.55099456e-02, 2.98888206e-01, 3.61203611e-01,
          1.41436175e-01, 3.23581755e-01, -4.72165853e-01,
          -6.04459107e-01, 1.08847506e-01, 3.25012773e-01,
          -3.96971464e-01, -5.09139180e-01, 1.95581466e-01,
          -1.06810227e-01, 1.33174434e-01, 1.76795214e-01,
          7.05348328e-02, 7.56017983e-01, -6.44195676e-01,
          -3.85516495e-01, 2.73694247e-01, 4.96274263e-01,
          -4.37074661e-01, -5.75599551e-01, 5.16399920e-01,
          -9.56280291e-01, -9.66804743e-01, 1.04794182e-01,
          7.02815363e-03, -4.55944799e-02, -6.62277564e-02,
          -1.98273563e+00, 1.98273599e+00 ]
      - [ -5.73726371e-02, 3.15626532e-01, 3.15626532e-01,
          -5.31178191e-02, 1.16444319e-01, -3.49525481e-01,
          -3.53149772e-01, 1.09195732e-01, 9.02848989e-02,
          -3.08397204e-01, -3.08397204e-01, 1.02418825e-01,
          -7.36025423e-02, 2.64414698e-01, 2.60159880e-01,
          -7.06087723e-02, 5.20762563e-01, -4.77035195e-01,
          -4.24090654e-01, 3.80363286e-01, 7.57539943e-02,
          -7.78814480e-02, -8.57605562e-02, 8.78879651e-02,
          -7.85904050e-01, -7.88267314e-01, 2.51727477e-02,
          1.85546316e-02, -2.73001082e-02, -1.64272711e-02,
          -1.31946957e+00, 1.31946981e+00 ]
      - [ -1.11694939e-01, 2.29127035e-01, 2.86358982e-01,
          1.83269754e-01, 6.72669783e-02, -3.53735507e-01,
          -2.15720460e-01, 4.30785120e-03, 8.33379403e-02,
          -3.23560745e-01, -2.26706684e-01, -2.82623842e-02,
          -1.47811025e-01, 1.58647865e-01, 2.29087189e-01,
          1.66088223e-01, 5.87060869e-01, -4.97881144e-01,
          -4.95191842e-01, 4.06012237e-01, -1.08901054e-01,
          -2.89521337e-01, 7.30190650e-02, 3.25403452e-01,
          -5.26048899e-01, -5.03822446e-01, -1.69036403e-01,
          2.58216113e-01, -2.29386002e-01, 1.40206322e-01,
          -1.11972344e+00, 1.11972356e+00 ]
      - [ -5.12921438e-03, 6.44526660e-01, 5.47577679e-01,
          -1.39366195e-01, -1.03090510e-01, -9.05036926e-02,
          -5.74236095e-01, -1.75641924e-01, -1.78678975e-01,
          -5.09783447e-01, -4.74115126e-02, -1.56238377e-02,
          -1.98385954e-01, 4.03757155e-01, 5.15621305e-01,
          -7.36312345e-02, 1.04760897e+00, -9.43472147e-01,
          -7.51497746e-01, 6.47361279e-01, -4.85284597e-01,
          4.47996736e-01, 4.41551447e-01, -4.04263318e-01,
          -2.16675639e-01, -1.42177176e+00, 4.45803314e-01,
          -3.41666609e-01, -4.83091086e-01, 3.78954649e-01,
          -1.22193480e+00, 1.22193515e+00 ]
      - [ -2.92549342e-01, 6.72863483e-01, 5.19275129e-01,
          -8.19138169e-01, -1.02392249e-01, 1.34572697e+00,
          1.17019832e-01, -6.07039869e-01, -8.04510489e-02,
          8.19138229e-01, -8.04510489e-02, 2.92549282e-02,
          -5.77784896e-01, -1.01660895e+00, 4.53451514e-01,
          -3.80314112e-01, 8.04511681e-02, 7.53314734e-01,
          6.87491059e-01, -1.52125645e+00, -1.05317783e+00,
          1.82111979e+00, 1.00929546e+00, -1.77723765e+00,
          5.92412412e-01, -4.60764974e-01, 1.62364876e+00,
          -7.89883018e-01, -8.55706751e-01, 2.19410751e-02,
          2.20143390e+00, -2.20143151e+00 ]
      - [ -2.45042726e-01, 3.57230991e-01, 3.45421702e-01,
          -2.21424133e-01, -6.49510920e-02, 6.43606246e-01,
          6.43606246e-01, -8.85696188e-02, -8.85696188e-02,
          2.53899753e-01, 2.53899753e-01, -8.85696188e-02,
          -3.39517027e-01, -5.04847109e-01, -5.16656399e-01,
          -3.39517027e-01, 2.36185774e-01, 1.13369179e+00,
          3.30660254e-01, -1.70053756e+00, -7.38080502e-01,
          7.49889851e-01, 7.26271272e-01, -7.38080263e-01,
          3.12946141e-01, 3.36564869e-01, 6.90843344e-01, 6.79034114e-01,
          -6.79034114e-01, -6.90843344e-01, 1.79501200e+00,
          -1.79501128e+00 ]
      - [ 4.32523847e-01, 1.67071804e-01, -8.38851750e-01,
          4.32523847e-01, 4.03999418e-01, -2.52645135e-01,
          -2.52645135e-01, 8.65047693e-01, -5.32068431e-01,
          -4.76183742e-01, -5.04126072e-01, -3.92356694e-01,
          4.32523847e-01, 4.32523847e-01, -3.49861115e-01,
          4.32523847e-01, 1.93267837e-01, 7.63756692e-01,
          -1.90473497e+00, 9.47710454e-01, 7.36978650e-01,
          -1.29233271e-01, -1.94548428e+00, 1.33773863e+00,
          1.08276412e-01, 1.36218742e-01, 7.50949919e-01, 2.06074625e-01,
          -1.43204510e-01, -8.13820302e-01, -1.48559999e+00,
          1.48560119e+00 ]
      - [ -1.01776786e-01, -7.67952323e-01, 1.69628054e-01,
          -1.26449972e-01, -2.03553572e-01, 2.40563363e-01,
          1.00543165e+00, 1.85049716e-02, 2.89909750e-01, 8.32719445e-01,
          8.57392609e-01, -3.08414083e-02, -5.95240176e-01,
          5.64398706e-01, -1.40945458e+00, -7.43279159e-01,
          -8.26551080e-01, 1.06094623e+00, 1.94918036e+00,
          -2.18357515e+00, -6.10661030e-01, 8.69729042e-01,
          6.22997463e-01, -8.82065833e-01, 2.52899647e-01,
          1.11646092e+00, -8.32719445e-01, 1.06711459e+00,
          1.09178746e+00, -1.32618260e+00, 2.93610740e+00,
          -2.93610549e+00 ]
      - [ -2.75314808e-01, -7.03142285e-01, -7.03142285e-01,
          -2.63430774e-01, 1.50531858e-01, 5.30822933e-01,
          5.18938780e-01, 9.11114216e-02, 1.74300075e-01, 6.14011586e-01,
          5.18938780e-01, 1.02995530e-01, -1.56473875e-01,
          3.18889886e-01, -6.19953513e-01, -2.99083024e-01,
          -1.94503009e+00, 1.29140508e+00, 1.41024601e+00,
          -7.56620586e-01, -1.06956869e-01, 7.60581911e-01,
          -2.85218209e-01, -3.68407011e-01, 4.75363880e-01,
          7.13045657e-01, -2.97102213e-01, -3.56523007e-01,
          9.50727582e-01, -2.97102213e-01, 2.18271208e+00,
          -2.18271112e+00 ]
      - [ -6.80893421e-01, 4.70751345e-01, 4.70751345e-01,
          4.70751345e-01, -2.49853954e-01, 9.41502690e-01,
          5.04671931e-01, -5.67548990e-01, -4.88125235e-01,
          -3.49133611e-01, -5.87405026e-01, 4.64960068e-01,
          -1.07801235e+00, -2.44062617e-01, 4.50895399e-01,
          4.70751345e-01, 7.31360614e-01, 6.28771484e-01,
          -9.59703863e-01, -4.00428325e-01, -2.49688506e+00,
          8.19057703e-01, 8.38913560e-01, 8.38913679e-01, 1.43955633e-01,
          -4.51722860e-01, 4.81506675e-01, 8.78625512e-01,
          -2.15933418e+00, 7.99201727e-01, 5.09636223e-01,
          -5.09634554e-01 ]
      - [ -3.41413856e-01, -5.82919300e-01, -7.20922410e-01,
          -3.75914633e-01, 2.65943557e-01, 7.31703997e-01,
          7.31703997e-01, 2.48693123e-01, 2.31442705e-01, 6.10951185e-01,
          6.28201604e-01, 2.14192286e-01, -2.55161941e-01,
          -5.48418462e-01, -5.82919300e-01, -2.55161941e-01,
          -2.02117014e+00, 1.97804451e+00, 1.68478787e+00,
          -1.64166188e+00, -9.91898552e-02, 2.11317211e-01,
          5.60636818e-02, -1.68191046e-01, 7.63329685e-01,
          7.11578667e-01, 7.33141005e-02, -1.16440028e-01,
          3.88135090e-02, 4.31266706e-03, 2.70256090e+00,
          -2.70255947e+00 ]
      - [ -4.23645020e-01, -7.67040074e-01, 3.82586896e-01,
          -2.44482353e-01, 1.82895184e-01, 6.45732045e-01,
          6.75592542e-01, 7.83836916e-02, 1.23174347e-01, 5.41220486e-01,
          5.71080983e-01, 3.35930400e-02, -2.59412527e-01,
          -6.32668078e-01, -6.32668078e-01, -2.74342775e-01,
          -1.05258048e+00, 1.58260334e+00, 1.26906896e+00,
          -1.79909170e+00, -3.76988173e-01, -2.12755457e-01,
          9.96592164e-01, -4.06848341e-01, 5.18825054e-01,
          7.12918162e-01, -3.62057894e-01, 8.92080784e-01,
          -2.27685735e-01, -3.02336752e-01, 2.43362594e+00,
          -2.43362474e+00 ]
      - [ 1.79162455e+00, 1.55307257e+00, -1.76429063e-01,
          -2.08484459e+00, -3.52858126e-01, -1.24742782e+00,
          -4.72133815e-01, 9.59177673e-01, -3.52858126e-01,
          -1.12815177e+00, -2.93220133e-01, 1.07845366e+00,
          1.79162455e+00, 1.55307257e+00, -3.55342895e-01,
          -2.26375842e+00, 1.08342302e+00, -1.11324215e+00,
          -6.95776522e-01, 7.25595713e-01, 2.87753248e+00,
          7.30565250e-01, -1.29712665e+00, -2.31097174e+00,
          -2.01278138e+00, -1.89350605e+00, 1.74441087e+00,
          -1.77423072e+00, 1.86368692e+00, -1.83386767e+00,
          -3.14093208e+00, 3.14093614e+00 ]
      - [ -6.53330564e-01, -1.76805764e-01, -1.76805764e-01,
          -5.85255563e-01, 5.48381694e-02, 5.76746225e-01,
          5.99437833e-01, 1.90988123e-01, 2.59063125e-01, 9.62504327e-01,
          1.05327094e+00, 3.95213068e-01, -3.35647345e-01,
          -7.66788721e-01, -9.25630331e-01, -4.71797198e-01,
          -1.59219754e+00, 1.42200983e+00, 2.67005134e+00,
          -2.49986410e+00, -6.75076842e-01, 5.95655978e-01,
          5.50272763e-01, -4.70851570e-01, 5.04889250e-01,
          6.41039193e-01, -1.98552340e-01, 2.83643752e-02,
          1.19131133e-01, 5.10564931e-02, 3.19195938e+00,
          -3.19195652e+00 ]
      - [ -1.88117489e-01, -4.69726026e-01, -4.69726026e-01,
          -1.79033384e-01, -1.49131358e-01, 3.32328349e-01,
          3.32328349e-01, -9.46265012e-02, -1.49131358e-01,
          5.04927099e-01, 5.04927099e-01, -8.55423436e-02,
          -1.79033384e-01, 2.47921482e-01, 2.47921482e-01,
          -2.06285805e-01, -1.30660284e+00, 4.20898914e-01,
          7.75180519e-01, 1.10523798e-01, -6.65413618e-01,
          6.15450859e-01, 6.15450859e-01, -5.65488100e-01,
          4.42852110e-01, 4.79188651e-01, -4.74646509e-01,
          -4.11057502e-01, 4.24683779e-01, 4.61020321e-01,
          1.67451096e+00, -1.67451036e+00 ]
      - [ -3.22455913e-01, -1.17299855e-01, -1.17299855e-01,
          -3.22455913e-01, -6.64857868e-03, 3.35278183e-01,
          3.35278183e-01, -6.64857868e-03, 1.52917236e-01,
          7.91180491e-01, 7.91180491e-01, 1.52917236e-01,
          -2.65468061e-01, -6.87177777e-01, -4.82021719e-01,
          -2.31275409e-01, -8.79511476e-01, 6.57259166e-01,
          1.88819540e+00, -1.66594279e+00, -4.41655666e-01,
          3.21981072e-01, 5.27137041e-01, -4.07462925e-01,
          5.72727382e-01, 5.38534641e-01, -1.11126073e-01,
          -1.11126073e-01, -8.54818430e-03, 2.30800495e-01,
          2.25291753e+00, -2.25291657e+00 ]
      - [ -7.06539035e-01, -5.05733192e-01, -4.83421445e-01,
          -4.83421445e-01, 3.71862273e-03, 4.05330300e-01,
          4.05330300e-01, 3.71862273e-03, 3.71863022e-02, 4.83421445e-01,
          4.83421445e-01, 3.71863022e-02, -2.15680301e-01,
          3.75581264e-01, 3.75581264e-01, -2.15680301e-01,
          -2.17911530e+00, 8.18097889e-01, 1.04121554e+00,
          3.19802016e-01, -8.81314516e-01, 7.58599818e-01,
          7.80911505e-01, -6.58196807e-01, -3.34676057e-02,
          1.89649910e-01, -8.03223431e-01, -5.57794034e-01,
          6.80508733e-01, 6.80508733e-01, 1.77750349e+00,
          -1.77750230e+00 ]
      - [ -5.52357733e-01, -4.90374893e-01, -3.97400588e-01,
          -3.97400588e-01, -6.65024593e-02, 1.58185467e-01,
          1.58185467e-01, 3.67377669e-01, -2.00152900e-02,
          2.12420478e-01, 2.12420478e-01, 4.44856256e-01,
          -2.42443427e-01, 1.99184552e-01, 1.91436693e-01,
          2.22428128e-01, -1.83753371e+00, 6.17246151e-01,
          8.49681914e-01, 3.70605975e-01, -8.81319165e-01,
          7.94156417e-02, 1.64641991e-01, 6.37261450e-01, 4.06762585e-02,
          -2.69238174e-01, -9.51049626e-01, -2.69238174e-01,
          1.49146333e-01, 1.07114148e+00, 7.41211891e-01,
          -7.41211057e-01 ]
      - [ -2.16369271e-01, -4.67160910e-01, -4.67160910e-01,
          -2.01616779e-01, -4.91747865e-03, 4.67160910e-01,
          4.67160910e-01, 6.14685789e-02, 9.83500481e-03, 5.40923178e-01,
          2.08993047e-01, 5.40923104e-02, -1.27854556e-01,
          2.63085365e-01, -3.93398643e-01, -1.94240570e-01,
          -1.35230780e+00, 9.90872860e-01, 8.13843548e-01,
          -4.52408314e-01, -3.39306414e-01, 8.04008484e-01,
          -1.84405640e-01, -2.80296475e-01, 2.65544027e-01,
          6.78612709e-01, -2.21286729e-01, -1.40148327e-01,
          6.85988903e-01, -3.24553758e-01, 1.68423796e+00,
          -1.68423748e+00 ]
      - [ -3.31375182e-01, -3.31375182e-01, -3.31375182e-01,
          -3.31375182e-01, 4.36536551e-01, 2.51452535e-01,
          2.51452535e-01, 4.02884930e-01, 4.02884930e-01, 2.51452535e-01,
          2.51452535e-01, 4.02884930e-01, -3.31375182e-01,
          -3.31375182e-01, -3.31375182e-01, -3.31375182e-01,
          -1.32550073e+00, 1.34232664e+00, 1.30867493e+00,
          -1.32550073e+00, 1.76671162e-01, -1.59845248e-01,
          -1.59845248e-01, 1.43019497e-01, -1.59845248e-01,
          -1.59845248e-01, 2.52387021e-02, -8.41287337e-03,
          -8.41287337e-03, -8.41287337e-03, 1.00581014e+00,
          -1.00580955e+00 ]
      - [ 1.18986987e-01, 1.18986987e-01, 1.18986987e-01,
          -1.50625139e-01, 2.37973973e-01, 2.37973973e-01,
          2.37973973e-01, -1.25177041e-01, 1.82951093e-01,
          1.82951093e-01, 1.82951093e-01, -1.19674765e-01,
          -3.21196079e-01, -3.21196079e-01, -3.65214378e-01,
          -2.16652602e-01, 2.06335813e-01, 5.88744879e-01,
          4.29178506e-01, -1.22425926e+00, 2.18715921e-01,
          2.18715921e-01, 1.74697638e-01, -6.12129629e-01,
          3.23259443e-01, -5.08961827e-02, 7.13921905e-01,
          8.11587274e-02, -2.76490033e-01, -5.18590689e-01,
          8.41850102e-01, -8.41850162e-01 ]
      - [ -7.22599030e-01, -7.22599030e-01, -7.22599030e-01,
          -7.22599030e-01, 7.16909349e-01, 1.13795139e-01,
          2.38969788e-01, 8.30704451e-01, 3.98283005e-01, 4.55181003e-02,
          -5.68975694e-02, 5.00698566e-01, -3.01557094e-01,
          3.92593205e-01, 3.35695654e-01, -3.24316114e-01,
          -2.89039612e+00, 1.90037870e+00, 8.87602210e-01,
          1.02415673e-01, 9.10360515e-02, -1.70692638e-01,
          -2.04831347e-01, 2.84487784e-01, -9.90018010e-01,
          -7.39668190e-01, -6.14493728e-01, -3.75523984e-01,
          5.34837008e-01, 4.55180407e-01, 3.41385573e-01,
          -3.41384679e-01 ]
      - [ -2.99698949e-01, -2.99698949e-01, -2.99698949e-01,
          -2.99698949e-01, 1.77536264e-01, 1.77536264e-01,
          1.77536264e-01, -8.00787210e-02, 2.18427539e-01,
          2.18427539e-01, 2.18427539e-01, -6.78113475e-02,
          1.09213769e-01, 1.09213769e-01, 1.09213769e-01,
          -1.68846861e-01, -1.19879580e+00, 4.52530056e-01,
          5.87471247e-01, 1.58794448e-01, 2.05478624e-01, 2.05478624e-01,
          2.05478624e-01, -6.16435766e-01, -7.25820512e-02,
          2.05478624e-01, -2.44325355e-01, -5.01940370e-01,
          6.55282617e-01, 9.09830779e-02, 7.91927636e-01,
          -7.91927397e-01 ]
      - [ -4.65586990e-01, -4.65586990e-01, -4.65586990e-01,
          -4.65586990e-01, 6.18780136e-01, 2.40302995e-01,
          2.22280264e-01, 8.08018744e-01, 6.27791524e-01, 2.58325696e-01,
          2.04257578e-01, 7.44939208e-01, -4.65586990e-01,
          -4.65586990e-01, -4.65586990e-01, -4.65586990e-01,
          -1.86234796e+00, 1.88938212e+00, 1.83531392e+00,
          -1.86234796e+00, 3.15397561e-01, -4.32545573e-01,
          -5.04636467e-01, 6.21783853e-01, -4.86613274e-01,
          -4.50568140e-01, -7.20909238e-02, 9.91249457e-02,
          -4.50570621e-02, 1.80227309e-02, 9.25166667e-01,
          -9.25166368e-01 ]
      - [ -4.14529592e-01, -4.14529592e-01, -4.14529592e-01,
          -4.14529592e-01, 4.63800222e-01, 5.38691841e-02,
          4.95333374e-01, 6.68765724e-01, 6.68765724e-01, 5.11099935e-01,
          3.81025746e-02, 4.16500479e-01, -4.14529592e-01,
          -4.14529592e-01, -4.14529592e-01, -4.14529592e-01,
          -1.65811837e+00, 1.68176854e+00, 1.63446867e+00,
          -1.65811837e+00, 3.03506643e-01, -2.64090121e-01,
          -2.95623332e-01, 2.56206959e-01, -7.37087607e-01,
          1.77374169e-01, -3.11389953e-01, 3.35039854e-01,
          3.50806475e-01, -3.74456108e-01, 1.09840500e+00,
          -1.09840369e+00 ]
      - [ -1.25679195e-01, -2.75841326e-01, -2.75841326e-01,
          -1.38736755e-01, 5.54947034e-02, 4.27635700e-01,
          4.27635700e-01, 6.85523078e-02, 6.20235279e-02, 4.27635700e-01,
          4.27635700e-01, 6.20235279e-02, -1.58323139e-01,
          -4.06417131e-01, -4.06417131e-01, -1.71380714e-01,
          -8.16098630e-01, 9.79318440e-01, 9.79318440e-01,
          -1.14253807e+00, -1.66484162e-01, 1.73012897e-01,
          1.73012897e-01, -1.79541633e-01, 5.58211446e-01,
          5.58211446e-01, 8.16098675e-02, 8.16097856e-02,
          -7.50811324e-02, -8.81386101e-02, 1.71054280e+00,
          -1.71054232e+00 ]
      - [ -4.29480374e-01, -4.29480374e-01, -4.29480374e-01,
          -4.29480374e-01, -8.94747488e-03, 2.41582751e-01,
          2.41582751e-01, 4.83165473e-01, -2.68425252e-02,
          2.14740232e-01, 3.04215312e-01, 5.72640598e-01,
          -2.86320299e-01, -5.10007977e-01, 2.05792710e-01,
          2.86320299e-01, -1.71792150e+00, 9.57383573e-01,
          1.06475353e+00, -3.04215252e-01, -7.51590729e-01,
          -4.83165473e-01, 3.22110295e-01, 9.12645876e-01,
          4.02637899e-01, -2.59477675e-01, -6.26325667e-01,
          -1.34212628e-01, -6.08430505e-01, 1.36896884e+00,
          1.00212109e+00, -1.00212002e+00 ]
      - [ -2.04936251e-01, -4.64657426e-01, -4.64657426e-01,
          -9.13082212e-02, 9.33373198e-02, 6.12779677e-01,
          4.66686547e-01, 1.25802472e-01, 7.71047473e-02, 5.31616807e-01,
          4.09872532e-01, 4.05819016e-03, -1.64354816e-01,
          -3.83494556e-01, -3.83494556e-01, -1.64354816e-01,
          -1.22555947e+00, 1.29860592e+00, 1.02265227e+00,
          -1.09569871e+00, -1.98849022e-01, 2.96244591e-01,
          2.84068976e-02, -1.25802472e-01, 6.53361082e-01,
          7.42640316e-01, 3.65234017e-02, 3.65234017e-02, 6.08721711e-02,
          -1.33918718e-01, 2.02095556e+00, -2.02095532e+00 ]
      - [ -8.24479222e-01, -8.24479222e-01, -8.24479222e-01,
          -8.24479222e-01, 9.87701640e-02, 8.01879346e-01,
          5.80902159e-01, 1.36436665e+00, 5.85924648e-02, 6.61257505e-01,
          -2.02562392e-01, 4.60369140e-01, -3.02169502e-01,
          -7.44123816e-01, 6.21916831e-01, -1.01281196e-01,
          -3.29791689e+00, 2.84591818e+00, 9.77656960e-01,
          -5.25657713e-01, -9.69286084e-01, -1.05466239e-01,
          1.75777256e-01, 8.98975313e-01, -3.26443404e-01,
          1.15510911e-01, -7.48308897e-01, 2.96310216e-01,
          -3.26443404e-01, 7.78442383e-01, 1.84147680e+00,
          -1.84147513e+00 ]
      - [ -5.89497745e-01, -9.12510276e-01, 6.81018054e-01,
          -3.95690322e-01, -1.66889772e-01, 3.28396112e-01,
          9.31352735e-01, 4.84518595e-02, -1.45355582e-01,
          9.52886879e-01, 2.42259428e-01, -1.02287300e-01,
          -3.95690322e-01, 6.81018054e-01, -6.75634444e-01,
          -4.81826991e-01, -1.21668017e+00, 1.14131081e+00,
          9.47503328e-01, -8.72133732e-01, -1.29743338e+00,
          1.04979062e+00, 1.17899561e+00, -9.31352854e-01,
          -5.00669360e-01, 1.09285879e+00, -1.34050202e+00,
          1.26513219e+00, 1.09285903e+00, -1.01748919e+00,
          2.45489526e+00, -2.45489430e+00 ]
      - [ -6.52475476e-01, 5.69722533e-01, 5.69722533e-01,
          5.69722533e-01, -8.97551596e-01, -1.33677855e-01,
          9.54842567e-02, 1.20946728e-01, -8.97551596e-01,
          -1.33677855e-01, -1.33677855e-01, -1.33677855e-01,
          -6.52475476e-01, 5.69722533e-01, 5.69722533e-01,
          5.69722533e-01, 1.05669212e+00, -8.14798594e-01,
          -1.29858553e+00, 1.05669212e+00, -3.10005450e+00,
          8.72089267e-01, 1.10125124e+00, 1.12671375e+00,
          -3.50108653e-01, -1.20946825e-01, -1.11398268e+00,
          1.35587597e+00, -1.11398268e+00, 8.72089267e-01,
          -3.05549622e-01, 3.05551261e-01 ]
      - [ -2.92660236e-01, -2.92660236e-01, -2.92660236e-01,
          -1.09713554e-01, 3.94751042e-01, 3.35946739e-01,
          3.29412937e-01, -2.99466122e-02, 3.94751042e-01,
          3.94751042e-01, 3.94751042e-01, -2.34128237e-02,
          -2.92660236e-01, -3.05727869e-01, -4.23336446e-01,
          -1.81585476e-01, -9.87694263e-01, 1.03016412e+00,
          1.16084027e+00, -1.20331013e+00, 2.04181507e-01,
          1.32309631e-01, 8.16730596e-03, -3.44658464e-01,
          2.56451964e-01, 3.21790099e-01, 1.45377219e-01,
          -1.02907531e-01, 1.91113934e-01, -2.33583614e-01,
          1.45486176e+00, -1.45486152e+00 ]
      - [ -1.91246402e+00, -1.87273905e-01, 1.17471826e+00,
          1.31091750e+00, 1.53224123e+00, -1.47549093e-01,
          -1.41874194e+00, -1.02149449e-01, 1.16904330e+00,
          -2.83748299e-01, -1.55494082e+00, -4.19947475e-01,
          -1.50386620e+00, -1.41874149e-01, 1.17471826e+00,
          1.31091750e+00, 3.85897487e-01, -1.36198953e-01,
          -1.08959353e+00, 8.39894950e-01, -7.15046167e-01,
          -7.60445774e-01, -6.24246836e-01, 2.09973788e+00,
          -2.30403662e+00, -1.89543891e+00, -7.15046167e-01,
          9.64743733e-01, -7.60445774e-01, 5.10746777e-01,
          -3.40497947e+00, 3.40498233e+00 ]
      - [ -1.17812753e+00, -8.59779894e-01, -5.70372880e-01,
          -3.09906662e-01, 1.81120539e+00, 3.93111110e-01,
          -1.85702741e-01, 8.85103166e-01, 1.78226471e+00,
          4.22051966e-01, -9.88806710e-02, 1.14556932e+00,
          -1.17812753e+00, -9.17661369e-01, -7.15076387e-01,
          -4.25669342e-01, -2.91818714e+00, 2.90371728e+00,
          3.25100493e+00, -3.23653460e+00, 1.23721480e+00,
          -9.62278187e-01, -1.57003307e+00, 1.29509604e+00,
          -1.30956733e+00, -1.25168574e+00, 1.66408688e-01,
          -1.80879116e-01, 1.08527467e-01, -9.40575153e-02,
          5.30579686e-01, -5.30576825e-01 ]
      - [ -1.08393526e+00, 6.03008330e-01, 6.03008330e-01,
          -1.05433977e+00, 1.02844369e+00, -5.99308908e-01,
          -5.99308908e-01, 1.02844369e+00, 8.21275175e-01,
          -5.40117919e-01, -5.40117919e-01, 8.80466163e-01,
          -9.95148718e-01, 7.50985861e-01, 7.21390367e-01,
          -1.02474427e+00, -9.32258308e-01, 8.58269572e-01,
          6.21505558e-01, -5.47516763e-01, -2.29365304e-01,
          2.14567229e-01, 1.84971720e-01, -1.70174301e-01,
          -3.24810648e+00, -3.18891549e+00, -5.17922938e-02,
          -2.21967921e-02, 3.69942114e-02, 3.69942114e-02,
          -2.27885365e+00, 2.27885556e+00 ]
      - [ -1.07991552e+00, 2.74944633e-01, 6.01114690e-01,
          6.01114690e-01, 5.24799287e-01, -8.30060780e-01,
          -2.71808393e-02, 1.98629275e-01, 6.00069225e-01,
          -8.04970801e-01, -2.52990842e-01, -5.22708260e-02,
          -1.15518546e+00, 1.99674621e-01, 6.01114690e-01,
          6.01114690e-01, 3.97258550e-01, -1.33813128e-01,
          -5.10163188e-01, 2.46718407e-01, -1.11023247e+00,
          -1.16041243e+00, 9.22057688e-01, 1.34858775e+00,
          -1.56185269e+00, -1.38622260e+00, -1.11023247e+00,
          1.37367773e+00, -1.16041291e+00, 8.96967471e-01,
          -1.91520345e+00, 1.91520512e+00 ]
      - [ -4.52097952e-01, 5.95522165e-01, 3.52324635e-01,
          -7.88832903e-01, -1.18480824e-01, 9.47846770e-01,
          -2.49433279e-01, -2.68140823e-01, -3.24263304e-01,
          -2.49433279e-01, 9.10431743e-01, 6.85942322e-02,
          -8.07540417e-01, 3.14909637e-01, 5.95522165e-01,
          -5.26927888e-01, -2.93084055e-01, 3.11792016e-01,
          4.05329496e-01, -4.24036592e-01, -1.70238233e+00,
          1.60884523e+00, 1.60884523e+00, -1.51530778e+00,
          8.79252613e-01, -2.09524012e+00, 9.72790062e-01,
          -9.54082549e-01, -1.06632733e+00, 1.04762006e+00,
          1.35941207e+00, -1.35941029e+00 ]
      - [ -2.73824483e-01, 0., 2.12811396e-01, 6.51459575e-01,
          -3.23183909e-02, -2.16239095e-01, 1.77457082e+00,
          7.13256180e-01, -1.39948100e-01, -5.52349865e-01,
          9.05207515e-01, -3.17698956e-01, -9.99910310e-02,
          1.06454596e-01, -2.31144714e+00, -4.19942558e-01,
          5.90446174e-01, 2.23926950e+00, -1.04789384e-01,
          -2.72492623e+00, -5.46081603e-01, -6.62134469e-01,
          5.81142306e-01, 6.27075374e-01, -4.79873968e-03,
          1.77368963e+00, -5.22381902e-01, 3.35209751e+00,
          -6.85834587e-01, -2.14388108e+00, 1.91118956e+00,
          -1.91119134e+00 ]
      - [ 2.35848263e-01, -1.00884072e-01, -4.45660263e-01,
          3.64492744e-01, 1.78552687e-01, -4.24775034e-01,
          -1.24604546e-01, 4.77056712e-01, -1.82556614e-01,
          -3.81085545e-01, -1.71937227e-01, -1.56260625e-01,
          3.05530667e-01, 4.12734449e-01, -2.43740633e-01,
          2.57288992e-01, 5.37966825e-02, 1.06229752e-01,
          -8.91840041e-01, 7.31813490e-01, 5.37375093e-01,
          -4.94010240e-01, -9.85942781e-01, 9.42577899e-01,
          -1.03575006e-01, 1.64333314e-01, -1.11258119e-01,
          2.71284610e-01, 1.54622957e-01, -3.14649552e-01,
          -1.10240233e+00, 1.10240221e+00 ]
      - [ 2.53793657e-01, -1.48212612e+00, -4.60369200e-01,
          8.52751493e-01, -6.17351942e-02, -1.37151968e+00,
          7.63424695e-01, 7.32557237e-01, 3.54812175e-01,
          -2.19529748e-01, 8.63601744e-01, -6.21559471e-02,
          1.47785708e-01, 1.70505214e+00, -1.79849648e+00,
          -2.17846587e-01, -8.35950196e-01, 6.27268404e-02,
          9.36728239e-01, -1.63505167e-01, 6.94656551e-01,
          -1.36812365e+00, -6.31839514e-01, 1.30530655e+00,
          -4.71971124e-01, 1.54443216e+00, -2.66158724e+00,
          1.88836408e+00, 1.98812008e+00, -1.21489704e+00,
          3.59773822e-02, -3.59785147e-02 ]
      - [ -7.29531646e-02, -1.34773004e+00, -1.22211289e+00,
          3.71211678e-01, 2.54457265e-01, -4.98660117e-01,
          4.92800355e-01, 5.99813104e-01, 2.63466597e-01, 2.63686236e-02,
          6.54308259e-01, 9.28762332e-02, 2.95108914e-01, 1.19310725e+00,
          -1.07393575e+00, -2.81265378e-02, -2.27158451e+00,
          8.48410726e-01, 1.03701973e+00, 3.86153966e-01, 7.40079761e-01,
          -6.26914501e-01, -1.14893997e+00, 1.03577471e+00,
          5.45685701e-02, 1.18548954e+00, -1.66488576e+00,
          2.41712093e-01, 1.77805150e+00, -3.54877561e-01,
          6.74817264e-01, -6.74818039e-01 ]
      - [ -4.74243671e-01, 0., 1.07008405e-01, 1.03951025e+00,
          -1.77478686e-01, 0., 4.21048373e-01, -1.42256945e-01,
          -4.30048585e-01, -9.18397009e-01, -5.28916538e-01,
          4.42648947e-01, -6.70985579e-01, 4.65243429e-01,
          1.33095562e-01, 7.33771980e-01, 6.72275007e-01, 1.01312540e-01,
          -1.43471324e+00, 6.61125302e-01, -1.75275648e+00,
          -4.53153700e-01, 1.32235587e-01, 2.07367444e+00,
          -2.69388199e-01, -1.28824145e-01, -6.51722193e-01,
          1.42531002e+00, -1.55418789e+00, 7.80599952e-01,
          -1.02626491e+00, 1.02626491e+00 ]
      - [ -4.85334843e-02, -1.55490005e+00, -1.53014803e+00,
          5.70640147e-01, 4.52503860e-01, -7.98462152e-01,
          7.44333029e-01, 1.06513965e+00, 3.82929534e-01,
          -2.84349412e-01, 8.66209328e-01, 2.24167794e-01,
          4.14676130e-01, 6.08467758e-01, -1.27940094e+00,
          1.66726947e-01, -2.56294155e+00, 1.46351421e+00,
          1.18895721e+00, -8.95303637e-02, 1.20157611e+00,
          -2.02924418e+00, -1.19900692e+00, 2.02667546e+00,
          1.85940623e-01, 1.44529986e+00, -1.94939184e+00,
          8.49964738e-01, 1.12172413e+00, -2.22966317e-02,
          5.27731061e-01, -5.27732253e-01 ]
      - [ -2.47656614e-01, -1.83429408e+00, -7.03149810e-02,
          6.06540143e-01, 3.70476723e-01, -6.59521461e-01,
          7.97743142e-01, 8.07796180e-01, 2.62750089e-01,
          -1.96915552e-01, 8.81051481e-01, 1.26573257e-02,
          3.07778507e-01, 2.98257500e-01, -1.39593852e+00,
          5.95899038e-02, -1.54572535e+00, 1.31649446e+00,
          9.59543467e-01, -7.30312824e-01, 6.93348885e-01,
          -2.39247322e+00, 2.12540790e-01, 1.48658419e+00,
          3.34632508e-02, 1.51514626e+00, -2.37099528e+00,
          2.14176440e+00, 6.71870708e-01, -4.42639500e-01,
          8.22357595e-01, -8.22358727e-01 ]
      - [ 5.54735243e-01, -5.14796562e-02, -3.36453825e-01,
          2.07736921e-02, -1.73114557e-02, -1.04246306e+00,
          -1.69127449e-01, 5.55801928e-01, -2.99190730e-02,
          -7.14140296e-01, -1.70491561e-02, 2.15920806e-01,
          7.18634248e-01, 9.19306993e-01, -3.37240696e-01,
          -2.69988388e-01, 1.87575355e-01, -6.73100054e-01,
          -5.45187771e-01, 1.03071225e+00, 1.22613919e+00,
          -8.88776064e-01, -8.59871387e-01, 5.22508323e-01,
          -7.74765134e-01, -1.43859878e-01, -5.56518793e-01,
          7.09941238e-02, 8.93881857e-01, -4.08357322e-01,
          -1.94277954e+00, 1.94277906e+00 ]
      - [ -2.91112423e-01, -1.39418709e+00, -1.12554085e+00,
          7.13611603e-01, 2.46483162e-01, -1.64514077e+00,
          5.31912565e-01, 1.29648042e+00, 4.59058911e-01,
          -2.50044405e-01, 1.43498981e+00, 4.34471309e-01,
          5.98174334e-01, 8.35943878e-01, -1.93057024e+00,
          8.54697600e-02, -2.09722877e+00, 4.29734677e-01,
          2.07847548e+00, -4.10982668e-01, 1.01260436e+00,
          -2.45342851e+00, -1.08920884e+00, 2.53003383e+00,
          -4.15793568e-01, 1.59365404e+00, -3.08395720e+00,
          1.41646326e+00, 1.64313269e+00, 2.43609454e-02, 7.17174336e-02,
          -7.17182755e-02 ]
      - [ -1.11596443e-01, -1.06186175e+00, -9.76144493e-01,
          1.95564330e-01, -1.60758048e-01, -2.65465438e-01,
          4.20272142e-01, 2.00523794e-01, -1.73003361e-01,
          2.80614287e-01, 7.82672167e-01, -1.41317010e-01,
          6.08658344e-02, 9.29615915e-01, 1.09179869e-01,
          -8.91617760e-02, -1.95403826e+00, 1.94572613e-01,
          7.48966038e-01, 1.01049995e+00, -3.84491801e-01,
          -1.17097065e-01, 3.35979521e-01, 1.65609479e-01,
          3.16448510e-01, 9.57316518e-01, -1.59968150e+00,
          -1.59784183e-01, 1.09809268e+00, 6.61373198e-01,
          1.21809328e+00, -1.21809375e+00 ]
      - [ -2.38661155e-01, -1.08215010e+00, -8.85980964e-01,
          4.33918625e-01, 1.18154280e-01, -1.08215010e+00,
          4.87202704e-01, 7.62709916e-01, 3.93132150e-01, 4.56149757e-01,
          1.60514033e+00, 2.53011405e-01, 2.33867913e-01,
          -6.44001784e-03, -1.49448454e+00, 4.65795249e-02,
          -1.77287340e+00, 2.85916686e-01, 2.70743346e+00,
          -1.22047675e+00, 5.06493032e-01, -1.71459043e+00,
          -2.88122833e-01, 1.49621964e+00, 3.30908775e-01,
          1.61113894e+00, -2.28480649e+00, 7.97850430e-01,
          1.07670975e+00, 4.10246670e-01, 1.46634293e+00,
          -1.46634412e+00 ]
      - [ -6.19208455e-01, -1.07140100e+00, -9.35913622e-01,
          1.70424059e-02, 7.72590116e-02, -4.83437032e-01,
          3.91407818e-01, 4.36570317e-01, 1.00834429e-01,
          -1.70424487e-02, 6.23468995e-01, 2.27232929e-02,
          1.58778638e-01, 1.16371405e+00, 1.17024705e-01, 1.81786008e-02,
          -2.60948086e+00, 4.21800196e-01, 7.29984343e-01,
          1.45769620e+00, -2.82336175e-01, -4.08166379e-01,
          1.95987791e-01, 4.94514942e-01, -4.60997760e-01,
          5.50186336e-01, -2.09678745e+00, -9.08931717e-02,
          1.40628481e+00, 7.81395733e-01, 5.14397442e-01,
          -5.14397800e-01 ]
      - [ -3.87480527e-01, -6.06161177e-01, -4.83920962e-01,
          -1.07675247e-01, -2.77692694e-02, -2.43782237e-01,
          1.01623654e-01, 4.83061582e-01, 5.59503632e-03,
          -4.96301688e-02, 2.03256309e-01, 3.70077759e-01,
          -4.37486842e-02, 4.55166966e-01, 3.53247896e-02,
          2.96062201e-01, -1.58523786e+00, 3.13133717e-01,
          5.29298961e-01, 7.42805302e-01, -4.53403533e-01,
          -4.44406599e-01, -1.43716291e-01, 1.04152644e+00,
          -1.31944269e-01, -9.94305313e-02, -1.26519310e+00,
          -6.91108219e-03, 3.67383212e-01, 9.04721081e-01,
          1.14675555e-02, -1.14675555e-02 ]
      - [ -1.35681361e-01, -1.01320481e+00, -9.28403974e-01,
          1.75328508e-01, 4.97791842e-02, -1.01320483e-01,
          5.77086151e-01, 4.19598967e-01, 5.79289235e-02, 2.90745705e-01,
          3.31494182e-01, 5.81491441e-02, 1.43390462e-01, 9.22677100e-01,
          -7.90740252e-01, -5.68275675e-02, -1.90196157e+00,
          9.45143759e-01, 7.38318026e-01, 2.18499944e-01, 1.15417279e-01,
          9.88975167e-02, -8.10563982e-01, 5.96249342e-01,
          3.76647152e-02, 1.18655086e+00, -1.20042729e+00,
          2.43609488e-01, 1.41474223e+00, -4.57924277e-01,
          1.09800565e+00, -1.09800625e+00 ]
      - [ -2.76114225e-01, -6.68663025e-01, -6.06212080e-01,
          -6.19966835e-02, 5.62076688e-01, -2.47405320e-01,
          2.52202213e-01, 7.27152884e-01, 5.13035357e-01,
          -3.32877934e-02, 3.32496315e-01, 4.68427539e-01,
          -1.60133913e-01, 1.82973687e-02, -5.79447389e-01,
          -2.40427971e-01, -1.61298597e+00, 1.29402649e+00,
          1.28067148e+00, -9.61711884e-01, 6.38864040e-01,
          -9.31058764e-01, -6.00960910e-01, 8.93155932e-01,
          -4.31451112e-01, -3.21616721e-03, -6.30105853e-01,
          3.11146319e-01, 3.37911040e-01, -1.89514142e-02,
          3.04005474e-01, -3.04005772e-01 ]
      - [ 3.22940946e-01, 0., 5.13769649e-02, -1.09174419e-02,
          4.84411389e-01, 0., 4.11015719e-01, -3.37280445e-02,
          3.72988582e-01, 7.20663369e-02, 3.72988582e-01,
          -2.36167148e-01, -4.14310813e-01, -2.67519474e-01,
          -8.42536986e-01, -2.82608688e-01, 3.63400429e-01,
          8.61699045e-01, 5.81876338e-01, -1.80697608e+00,
          7.66030133e-01, -1.95453197e-01, -7.15583516e-03,
          -5.63421309e-01, 4.13320839e-01, 5.78537732e-02,
          8.07352364e-01, 4.17747110e-01, -2.36775413e-01,
          -9.88324225e-01, 8.56070638e-01, -8.56071591e-01 ]
      - [ -3.38550210e-01, -7.10785508e-01, -6.51566267e-01,
          -1.35512784e-01, 4.87274379e-01, -4.47794884e-01,
          1.04145505e-01, 7.52930462e-01, 2.79794544e-01,
          -2.87404567e-01, -4.51967958e-03, 3.01465780e-01,
          3.44189852e-02, 6.37196004e-01, 3.48439366e-02,
          -5.59357330e-02, -1.83641469e+00, 8.96555424e-01,
          2.89336145e-01, 6.50523245e-01, 4.62937742e-01,
          -8.08788955e-01, -5.17096639e-01, 8.62947822e-01,
          -8.46800745e-01, -2.84352839e-01, -1.00985622e+00,
          6.99968189e-02, 6.64004922e-01, 2.75854290e-01,
          -6.35573506e-01, 6.35573149e-01 ]
      - [ -2.95895398e-01, -4.79731709e-01, -4.50485021e-01,
          -1.95621043e-01, 2.27781311e-01, -4.79731672e-02,
          1.86000317e-01, 2.16465984e-02, 2.71576375e-01, 1.00274354e-01,
          2.71576375e-01, -8.51262882e-02, 2.38151580e-01,
          3.21713537e-01, 4.17809784e-02, -1.25668839e-01,
          -1.42173314e+00, 3.87455016e-01, 5.58300793e-01,
          4.75977272e-01, 4.41613913e-01, -1.05717003e-01,
          4.88726087e-02, -3.84769380e-01, -1.97961077e-01,
          3.28805178e-01, -5.95818937e-01, -4.38459218e-01,
          9.31715846e-01, 1.02562234e-01, 5.09877920e-01,
          -5.09878099e-01 ]
      - [ -2.28762418e-01, -7.46317089e-01, -6.63978815e-01,
          5.35401255e-02, 5.67363203e-01, -5.22421956e-01,
          1.21357620e-01, 9.94629741e-01, 5.63063800e-01,
          -2.25193083e-01, 2.12294787e-01, 6.01271987e-01,
          -7.58485720e-02, 1.59403548e-01, -6.28691018e-01,
          -1.81712002e-01, -1.58551824e+00, 1.16092861e+00,
          1.15143740e+00, -7.26848006e-01, 8.25816154e-01,
          -1.33452880e+00, -9.59017754e-01, 1.46773005e+00,
          -7.20601380e-01, -1.26144007e-01, -9.30138171e-01,
          5.05548596e-01, 4.21425521e-01, 3.16381059e-03,
          -4.13962424e-01, 4.13961381e-01 ]
      - [ -2.25998193e-01, -7.06964850e-01, -6.30447447e-01,
          3.63472477e-02, 4.66942638e-01, -6.22129083e-01,
          3.85910600e-01, 9.02167916e-01, 6.39822423e-01, 5.02559766e-02,
          7.42505193e-02, 3.58938396e-01, -8.38944465e-02,
          1.34726763e-01, -5.97654283e-01, -1.82273969e-01,
          -1.52706325e+00, 1.13289201e+00, 1.12326729e+00,
          -7.29095876e-01, 7.96872497e-01, -1.14411128e+00,
          -7.67940700e-01, 1.11517978e+00, -9.56150830e-01,
          3.88619393e-01, -1.08814955e+00, 6.93978190e-01,
          7.40910769e-01, -3.46739203e-01, -1.11711971e-01,
          1.11711971e-01 ]
      - [ -3.26424912e-02, -9.20492768e-01, -8.21345985e-01,
          2.84277201e-01, 1.63900226e-01, -1.15061596e-01,
          6.78112984e-01, 5.12680709e-01, 1.61242619e-01, 2.24870384e-01,
          8.05587530e-01, 9.04234648e-02, 9.39564854e-02,
          -6.00009151e-02, -1.00897765e+00, -5.65302707e-02,
          -1.49020410e+00, 1.23963237e+00, 1.28212392e+00,
          -1.03155231e+00, 3.86456966e-01, -8.70684981e-01,
          -3.46623242e-01, 8.30851436e-01, 6.01353168e-01,
          1.28121698e+00, -9.04296517e-01, 6.53724730e-01,
          4.20068473e-01, -1.69496834e-01, 1.59350944e+00,
          -1.59350991e+00 ]
      - [ -2.83832312e-01, -6.66137099e-01, -6.05315864e-01,
          -7.53024369e-02, 3.22207846e-02, -3.08088392e-01,
          1.78481281e-01, 6.90031171e-01, 6.87858183e-03,
          -1.24538668e-01, 3.14967006e-01, 5.21324694e-01,
          -3.76512669e-02, -7.20441788e-02, 1.19470209e-02,
          4.17059749e-01, -1.63058770e+00, 5.92644870e-01,
          7.18631625e-01, 3.19311351e-01, -2.82384127e-01,
          -1.17080843e+00, -9.99206603e-02, 1.55311334e+00,
          1.40106022e-01, -5.90110868e-02, -1.22583711e+00,
          1.87894031e-01, -2.27355450e-01, 1.26529849e+00,
          6.08212464e-02, -6.08212464e-02 ]
      - [ -8.59301239e-02, -1.28965282e+00, -1.16380656e+00,
          5.26094258e-01, 2.32207596e-01, -1.28965273e-01,
          6.45667434e-01, 6.97288632e-01, 1.88436508e-01, 1.73542410e-01,
          7.17194140e-01, -1.75223760e-02, 2.12266982e-01,
          2.23621547e-01, -9.80907142e-01, 5.04646599e-02,
          -2.01329565e+00, 1.44619834e+00, 1.06165063e+00,
          -4.94553775e-01, 5.46981215e-01, -1.02145410e+00,
          -7.81852365e-01, 1.25632536e+00, 5.52763402e-01,
          1.55757105e+00, -1.27234030e+00, 7.05243826e-01,
          7.97867477e-01, -2.30770633e-01, 1.40743887e+00,
          -1.40744019e+00 ]
      - [ -3.34106088e-01, -1.10891581e+00, -9.85650659e-01,
          8.85173753e-02, 1.50328934e-01, -5.26735008e-01,
          3.06910515e-01, 1.42861426e+00, 1.04996704e-01,
          -2.01141641e-01, -7.52021223e-02, 2.94179112e-01,
          2.55212575e-01, 3.02446991e-01, 6.52015284e-02, 2.35343248e-01,
          -2.34015512e+00, 1.35911858e+00, 1.22832261e-01,
          8.58204305e-01, 1.76432401e-01, -1.53434551e+00,
          -6.88740909e-01, 2.04665446e+00, -7.00699806e-01,
          4.49498773e-01, -1.81942773e+00, 8.38391364e-01,
          4.61514652e-01, 5.19521952e-01, -4.96167988e-01,
          4.96167213e-01 ]
      - [ -2.64928699e-01, -1.50639343e+00, 1.29489794e-01,
          4.28667188e-01, -5.59439734e-02, -1.00426233e+00,
          7.54724920e-01, 6.36369348e-01, -5.72265536e-02,
          9.10385475e-02, 3.04307878e-01, -1.23895407e-01,
          1.93620607e-01, 1.62524021e+00, -1.07177711e+00,
          -7.90311173e-02, -1.21316516e+00, 3.30887854e-01,
          2.14224383e-01, 6.68052673e-01, -1.84478268e-01,
          -7.94377089e-01, 1.16745248e-01, 8.62110317e-01,
          -1.04391420e+00, 1.46805108e+00, -2.83152866e+00,
          1.94925106e+00, 1.85267293e+00, -9.70395446e-01,
          1.45809174e-01, -1.45810589e-01 ]
      - [ -2.02801600e-01, 0., 6.51565194e-02, 6.32949054e-01,
          -4.06261891e-01, -6.37871802e-01, -1.80270185e-03,
          3.18121225e-01, -4.15569991e-01, -4.14477974e-01,
          -3.28469127e-02, -7.93872774e-02, -8.17966610e-02,
          7.16721714e-01, 9.30807441e-02, 4.46787566e-01, 4.95303988e-01,
          -7.27815211e-01, -9.42282319e-01, 1.17479348e+00,
          -1.10643017e+00, -3.35628092e-01, 1.23587511e-01,
          1.31847072e+00, -4.26732659e-01, 1.34871572e-01,
          -1.24693537e+00, 1.01442409e+00, -1.95123002e-01,
          4.27634180e-01, -1.08699954e+00, 1.08699930e+00 ]
      - [ -3.04129690e-01, -8.25214565e-01, -7.42314696e-01,
          2.68923521e-01, 6.78475499e-01, -1.95988461e-01,
          4.56895262e-01, 2.80373961e-01, 6.66632652e-01, 1.81076288e-01,
          6.66632652e-01, -5.27531914e-02, -1.50172830e-01,
          6.60535768e-02, -9.13089871e-01, -8.14002752e-02,
          -1.60273540e+00, 1.21975625e+00, 1.46158838e+00,
          -1.07860959e+00, 8.90805721e-01, -7.74073243e-01,
          -5.31876624e-01, 4.15144295e-01, 8.51141661e-02,
          7.56722093e-01, -6.46857262e-01, 2.63877928e-01,
          7.63589680e-01, -3.80610377e-01, 1.10861576e+00,
          -1.10861683e+00 ]
      - [ -3.04904312e-01, -3.40264440e-01, 3.70272920e-02,
          6.60187006e-01, 3.93304676e-01, -6.28973663e-01,
          -3.73999536e-01, 2.45405629e-01, 3.01107705e-01,
          -4.26899612e-01, -3.17554891e-01, -1.08321972e-01,
          -8.58926848e-02, 4.17611271e-01, 6.61531910e-02,
          4.66014326e-01, 5.20454459e-02, -3.64262849e-01,
          -5.51668823e-01, 8.63886058e-01, 3.03615451e-01,
          -9.78526533e-01, -5.88374138e-01, 1.26328516e+00,
          -7.85418510e-01, -2.26604864e-01, -8.80837739e-01,
          5.68620205e-01, 2.05926597e-01, 1.06290601e-01,
          -1.74742746e+00, 1.74742711e+00 ]
      - [ -2.35095382e-01, -8.38975012e-01, -6.11463785e-01,
          4.97001469e-01, 7.77176559e-01, -8.61347675e-01,
          -1.59891650e-01, 7.99199700e-01, 7.49469161e-01,
          -4.53654438e-01, 2.23574694e-02, 4.20764208e-01,
          -2.03208793e-02, 4.10778493e-01, -6.17832124e-01,
          1.21833771e-01, -1.18853283e+00, 5.55137038e-01,
          7.38936305e-01, -1.05540685e-01, 1.27122962e+00,
          -1.74319863e+00, -1.36683035e+00, 1.83879936e+00,
          -9.52252090e-01, -1.36865765e-01, -1.15824151e+00,
          5.24845660e-01, 6.86272264e-01, -5.28767034e-02,
          -1.45253623e+00, 1.45253551e+00 ]
      - [ -2.40445584e-01, -1.15077287e-01, -4.01548147e-02,
          2.68930420e-02, 4.13487911e-01, -8.68310392e-01,
          -2.68930644e-01, 6.59661770e-01, 3.29553694e-01,
          -5.90510249e-01, -1.51678577e-01, 2.96960801e-01,
          -6.99191615e-02, 7.61377752e-01, 3.38011011e-02,
          -1.76709607e-01, -3.68784636e-01, -6.40914142e-02,
          -1.15674302e-01, 5.48550129e-01, 4.32676971e-01,
          -8.12520206e-01, -4.26963031e-01, 8.06806147e-01,
          -1.43714416e+00, -9.02467072e-01, -8.10345292e-01,
          3.77469242e-01, 4.30502087e-01, 2.37375614e-03,
          -1.87942982e+00, 1.87942934e+00 ]
      - [ -2.90338218e-01, -1.15690321e-01, 4.86678034e-02,
          4.72772956e-01, 2.18587980e-01, -7.20839679e-01,
          -4.67211232e-02, 2.62806177e-01, 2.38333181e-01,
          -5.45079350e-01, -6.42414987e-02, -2.78101675e-02,
          -2.26652920e-01, 3.92957747e-01, 6.95254356e-02,
          3.33722085e-01, 1.15412250e-01, -2.86166668e-01,
          -3.98797840e-01, 5.69552362e-01, -6.00698441e-02,
          -9.88651693e-01, 7.23058870e-03, 1.04149115e+00,
          -7.41697311e-01, -3.45680505e-01, -9.08280194e-01,
          7.37525761e-01, -1.40441492e-01, 3.11195821e-01,
          -1.37688172e+00, 1.37688148e+00 ]
      - [ -4.89288628e-01, 0., -2.71683931e-01, -1.61722615e-01,
          -7.05605745e-02, -6.15988553e-01, -8.94110441e-01,
          6.81656241e-01, -6.40967965e-01, -2.46807432e+00,
          2.48635840e+00, 1.08158700e-01, -7.50156701e-01,
          3.07659483e+00, 4.91863728e-01, -4.82077926e-01,
          -9.22695100e-01, -8.99002910e-01, -5.14524937e-01,
          2.33622408e+00, -1.95097256e+00, -7.46800052e-03,
          1.81242776e+00, 1.46014407e-01, 8.99003446e-01,
          -4.27406454e+00, -1.17583728e+00, -6.45861208e-01,
          -7.82603741e-01, 2.60430288e+00, -1.49181449e+00,
          1.49181342e+00 ]
      - [ 2.18455493e-01, -7.95232654e-02, -3.76591146e-01,
          2.09888607e-01, 1.44587770e-01, -3.09134156e-01,
          -3.09134156e-01, 2.91273981e-01, -1.27269536e-01,
          -2.34747574e-01, -2.43118450e-01, -8.54151547e-02,
          2.52723008e-01, 3.12691182e-01, 8.25902894e-02, 2.52723008e-01,
          -2.77702659e-02, -1.82406619e-01, -6.90550745e-01,
          9.00727510e-01, 4.88496721e-01, -3.10713798e-01,
          -8.46253514e-01, 6.68470383e-01, -8.10740888e-02,
          -8.12701508e-02, -2.56141443e-02, -1.84562683e-01,
          2.03397110e-01, 6.77962601e-03, -1.09613431e+00,
          1.09613442e+00 ]
      - [ 4.82999057e-01, -1.57985616e+00, -6.55853689e-01,
          4.03489769e-01, -4.07289304e-02, -1.29416859e+00,
          -5.63190401e-01, 2.27419749e-01, 4.86799031e-01,
          1.94583178e-01, 2.18163133e-01, 1.80259824e-01, 2.35117272e-01,
          1.73487961e+00, -1.23551041e-01, 9.36376452e-02,
          -1.34922075e+00, -1.67066836e+00, 1.07980514e+00,
          1.94008362e+00, 1.16418636e+00, -9.44562018e-01,
          -1.12443197e+00, 9.04806435e-01, -4.99368936e-01,
          2.69999832e-01, -2.43175435e+00, -5.88134348e-01,
          2.65137911e+00, 3.68509710e-01, -1.44461238e+00,
          1.44461250e+00 ]
      - [ 5.77494316e-02, -1.19243658e+00, -1.17634034e+00,
          3.74812037e-02, 2.39571333e-01, -3.44624013e-01,
          -3.56548369e-01, 2.12141976e-01, 2.95612514e-01,
          2.70022780e-01, 1.74627855e-01, 2.24066347e-01, 3.05763036e-01,
          1.00808513e+00, 8.21566284e-02, 1.62670657e-01,
          -2.27354622e+00, -2.49458969e-01, 9.64329541e-01,
          1.55867553e+00, 8.98696303e-01, -2.58952707e-01,
          -1.27610409e+00, 6.36359811e-01, 5.04240841e-02,
          2.56718576e-01, -1.23973954e+00, -1.28326547e+00,
          1.87948370e+00, 6.43521607e-01, -2.56521732e-01,
          2.56521821e-01 ]
      - [ -2.70225108e-01, 0., 1.17471209e-02, 5.75608909e-01,
          -1.23995088e-01, 7.04827234e-02, -2.59262472e-01,
          -3.40315551e-01, -2.80361891e-01, -5.16109467e-01,
          -6.95970535e-01, 4.39082175e-01, -4.76016551e-01,
          3.17956805e-01, 8.54298532e-01, 6.93080127e-01, 3.17131013e-01,
          -6.53090537e-01, -1.05335975e+00, 1.38931894e+00,
          -1.15059865e+00, -1.27669960e-01, -8.91873762e-02,
          1.36745548e+00, -2.02632651e-01, -6.75779700e-01,
          -3.23737353e-01, -1.22219734e-02, -9.54531133e-01,
          1.29049039e+00, -1.40085948e+00, 1.40086007e+00 ]
      - [ 1.44939408e-01, -1.37696266e+00, -1.50109017e+00,
          5.82576729e-02, 4.22900170e-01, -5.58689415e-01,
          -5.58689415e-01, 4.53758895e-01, 4.35151279e-01,
          1.27254412e-01, 1.45862058e-01, 4.16543633e-01, 4.35843349e-01,
          4.65779632e-01, 4.53297615e-01, 4.35843349e-01,
          -2.67485547e+00, -2.40719855e-01, 1.12481141e+00,
          1.79076385e+00, 1.43883395e+00, -1.34261811e+00,
          -1.46062005e+00, 1.36440337e+00, 1.67955458e-01,
          6.26660287e-02, -1.36781251e+00, -1.54776287e+00,
          1.46402895e+00, 1.45154679e+00, -8.44262183e-01,
          8.44262302e-01 ]
      - [ -8.03861097e-02, -2.78800941e+00, -3.36948097e-01,
          2.17598736e-01, 5.98040819e-01, -7.68650770e-01,
          -7.05998778e-01, 4.56685632e-01, 5.50663471e-01,
          2.97855347e-01, 3.60507280e-01, 3.62707794e-01, 5.75905502e-01,
          3.38242501e-01, 3.77205789e-01, 5.44579566e-01,
          -2.98774457e+00, -4.19923276e-01, 1.57173407e+00,
          1.83593321e+00, 1.64422357e+00, -2.92056179e+00,
          -3.05233926e-01, 1.58157146e+00, 5.60499914e-02,
          3.85360807e-01, -3.03900528e+00, -3.68662119e-01,
          1.76266730e+00, 1.64500082e+00, -8.16287100e-01,
          8.16287279e-01 ]
      - [ 3.75788838e-01, -2.96780299e-02, -2.37475336e-01,
          -1.21215969e-01, -3.37250764e-03, -5.56769669e-01,
          -4.60316032e-01, 1.74593449e-01, 1.13642775e-02,
          -2.98773140e-01, -1.94900066e-01, 1.89432472e-01,
          4.34736103e-01, 5.08215785e-01, 2.78160006e-01,
          -6.97903708e-02, -1.25805028e-02, -8.45864713e-01,
          -2.92876482e-01, 1.15132153e+00, 8.18516731e-01,
          -3.77005041e-01, -6.14531517e-01, 1.73019499e-01,
          -4.45671111e-01, -4.45569098e-01, -2.14031309e-01,
          -6.44413948e-01, 6.55543089e-01, 2.02902079e-01,
          -1.51075864e+00, 1.51075876e+00 ]
      - [ 3.33397044e-03, -1.03441215e+00, -1.00554550e+00,
          7.66538363e-03, 2.08763197e-01, -1.04740644e+00,
          -1.02671826e+00, 3.90625864e-01, 4.52690631e-01,
          2.56893247e-01, 3.39646190e-01, 5.76820135e-01, 5.23902655e-01,
          5.34959197e-01, 4.19008195e-01, 3.99773210e-01,
          -2.02895808e+00, -1.47473598e+00, 1.62605011e+00,
          1.87764299e+00, 1.18869030e+00, -1.28996611e+00,
          -1.27360916e+00, 1.37488425e+00, -3.04652929e-01,
          -2.38257095e-01, -1.86972153e+00, -1.63397241e+00,
          1.76844585e+00, 1.73524785e+00, -1.47758520e+00,
          1.47758591e+00 ]
      - [ -1.40140774e-02, -8.61310780e-01, -8.51241350e-01,
          -2.33865157e-02, -1.21366486e-01, -1.54911369e-01,
          -1.54911369e-01, -3.66294570e-02, -1.01227753e-01,
          3.81939709e-01, 3.81939709e-01, -2.58630551e-02,
          7.73073584e-02, 7.24298894e-01, 7.34368265e-01, 4.50082086e-02,
          -1.74995255e+00, -4.67818558e-01, 6.36788547e-01,
          1.58098280e+00, -1.59300908e-01, 9.00164172e-02,
          1.10155202e-01, -4.08710390e-02, 2.58022487e-01,
          2.80949086e-01, -1.15160263e+00, -1.06616855e+00,
          1.08231819e+00, 1.13545310e+00, 4.54056710e-01,
          -4.54056591e-01 ]
      - [ -2.33636629e-02, -1.10862648e+00, -1.07952118e+00,
          -8.15742165e-02, 1.47144973e-01, -9.33994889e-01,
          -9.33994889e-01, 2.05355361e-01, 5.15770793e-01,
          9.13379908e-01, 9.13379908e-01, 5.15770793e-01, 3.20341140e-01,
          -9.25687701e-02, 3.35642010e-01, 3.86858702e-01,
          -2.29308534e+00, -1.51548958e+00, 2.85830140e+00,
          9.50273573e-01, 9.59892750e-01, -1.22181022e+00,
          -7.64494300e-01, 1.02640986e+00, 3.42880338e-01,
          2.18151748e-01, -1.91883969e+00, -1.88973451e+00,
          1.65692317e+00, 2.15165138e+00, -4.12298925e-02,
          4.12300490e-02 ]
      - [ -3.35622698e-01, -7.20789671e-01, -6.92554772e-01,
          -1.81129739e-01, 6.15308248e-02, -2.61306226e-01,
          -2.61306226e-01, 8.28401521e-02, 1.09210536e-01,
          1.51829287e-01, 1.51829287e-01, 1.09210536e-01, 1.36380002e-01,
          7.51421869e-01, 7.62076557e-01, 1.36380002e-01,
          -1.93009686e+00, -3.78241420e-01, 5.22079706e-01,
          1.78625858e+00, -2.85013467e-02, -7.88447186e-02,
          -3.99551168e-02, 1.47300839e-01, -3.08719575e-01,
          -1.54226765e-01, -1.25618780e+00, -1.05215049e+00,
          1.14884186e+00, 1.15949643e+00, -2.18953893e-01,
          2.18954176e-01 ]
      - [ -2.68402219e-01, -4.78554279e-01, -4.11197573e-01,
          -1.74241856e-01, -1.74965523e-02, -1.62842587e-01,
          -1.62842587e-01, 2.83670515e-01, 2.35866550e-02,
          3.64762172e-02, 3.64762172e-02, 3.35687280e-01,
          -2.08425410e-02, 3.44765157e-01, 3.44500065e-01,
          2.91258097e-01, -1.33239579e+00, -5.95112219e-02,
          4.32226360e-01, 9.59680796e-01, -2.83154786e-01,
          -2.60155469e-01, -1.93063915e-01, 7.36373961e-01,
          -1.03510506e-01, -3.21450830e-01, -9.27295566e-01,
          -4.64611530e-01, 3.83985549e-01, 1.00792158e+00,
          -2.52732754e-01, 2.52732992e-01 ]
      - [ -4.64172512e-02, -1.10997689e+00, -1.09652269e+00,
          -5.11262044e-02, 6.65986240e-02, -3.02721038e-02,
          -3.02721038e-02, 1.93405062e-01, 1.15706682e-01,
          5.24716318e-01, 2.52267327e-02, 1.82305232e-01, 1.94414094e-01,
          9.71061587e-01, -3.36354994e-03, 9.45162028e-02,
          -2.30404282e+00, 1.99459419e-01, 8.47954988e-01,
          1.25662851e+00, 3.30302089e-01, 3.55528921e-01,
          -1.10493159e+00, 4.19100136e-01, 4.30535525e-02,
          6.37732029e-01, -1.12006748e+00, -9.84515965e-01,
          1.80589879e+00, 2.98684806e-01, 4.89398837e-01,
          -4.89398897e-01 ]
      - [ -2.35761940e-01, -7.60117114e-01, -7.49835610e-01,
          -2.56324887e-01, 6.48172617e-01, -2.19554484e-01,
          -2.19554484e-01, 6.23128474e-01, 6.23128474e-01,
          1.19734131e-01, 1.19734131e-01, 6.23128474e-01,
          -1.53510168e-01, -9.56951175e-03, 7.11967121e-04,
          -1.53510168e-01, -2.00203943e+00, 8.32192183e-01,
          1.48572528e+00, -3.15877825e-01, 8.82028997e-01,
          -8.69506896e-01, -8.48943949e-01, 8.36421728e-01,
          -4.89092380e-01, -5.09655416e-01, -5.67260921e-01,
          -6.02586448e-01, 5.79783022e-01, 5.90064466e-01,
          -1.99640706e-01, 1.99640870e-01 ]
      - [ 6.37749791e-01, 0., 1.25048980e-02, -2.44387671e-01,
          8.25323284e-01, 7.50293806e-02, 7.50293806e-02,
          -3.04165363e-01, 6.75408959e-01, 3.12766969e-01,
          3.12766969e-01, -2.86672980e-01, -6.61603093e-01,
          -4.86534536e-01, -6.13968790e-01, -3.29247475e-01,
          4.05867070e-01, 6.71216667e-01, 1.01426995e+00,
          -2.09135413e+00, 1.47687888e+00, -9.87382308e-02,
          -2.13667572e-01, -1.16447389e+00, 6.96298718e-01,
          -5.18194497e-01, 1.53810239e+00, -4.61018771e-01,
          -1.59961686e-01, -9.17122245e-01, 7.75592744e-01,
          -7.75593698e-01 ]
      - [ -2.02833593e-01, -5.27349889e-01, -5.20986855e-01,
          -2.15559721e-01, 3.67227316e-01, -2.94052064e-01,
          -2.36043572e-01, 4.32688415e-01, 2.32295454e-01,
          -1.15711905e-01, -1.63173422e-01, 2.79756933e-01,
          4.31903787e-02, 4.53956753e-01, 4.33952332e-01, 3.26433852e-02,
          -1.46673000e+00, 2.69820094e-01, 2.33167112e-01,
          9.63742912e-01, 4.39879537e-01, -4.83157128e-01,
          -4.86251563e-01, 5.29528856e-01, -6.27415836e-01,
          -5.24124801e-01, -6.57008231e-01, -5.39901733e-01,
          6.13730669e-01, 5.83179235e-01, -8.08980882e-01,
          8.08980942e-01 ]
      - [ -2.29364485e-01, -4.17245746e-01, -4.13561821e-01,
          -2.36732379e-01, 2.01415911e-01, -1.96208935e-02,
          -1.96208935e-02, -5.40810265e-02, 2.50508368e-01,
          1.43673912e-01, 1.43673912e-01, -4.15636562e-02,
          2.17352837e-01, 2.68928111e-01, 2.72612035e-01,
          -6.63742572e-02, -1.29690444e+00, 1.08093068e-01,
          4.96292531e-01, 6.92518771e-01, 4.39912617e-01,
          -2.42646448e-02, -1.68967489e-02, -3.98751259e-01,
          -1.71685755e-01, 1.04673453e-01, -4.64815199e-01,
          -7.23996162e-01, 8.80463243e-01, 3.08348030e-01,
          2.48106033e-01, -2.48106033e-01 ]
      - [ -1.29827172e-01, -7.01298475e-01, -6.90093160e-01,
          -1.52237833e-01, 5.43187559e-01, -4.23677027e-01,
          -4.37702984e-01, 7.12870836e-01, 5.72611153e-01,
          -3.98755111e-02, -8.19533840e-02, 6.63779974e-01,
          -4.01846282e-02, 1.16689876e-01, 1.27895206e-01,
          -4.01846282e-02, -1.67345667e+00, 3.94678444e-01,
          1.11456215e+00, 1.64215878e-01, 9.45786893e-01,
          -1.04816139e+00, -1.08185458e+00, 1.18422818e+00,
          -6.75642014e-01, -6.70001090e-01, -7.11615086e-01,
          -5.67163110e-01, 6.09240770e-01, 6.69537187e-01,
          -9.83208776e-01, 9.83208358e-01 ]
      - [ -1.54477298e-01, -7.70158887e-01, -7.58086681e-01,
          -1.78621694e-01, 5.19507229e-01, -6.05306685e-01,
          -1.74017727e-01, 7.43892848e-01, 7.43892848e-01,
          2.39767626e-01, -2.22327724e-01, 4.97442007e-01,
          -5.78998141e-02, 1.11110836e-01, 1.23183027e-01,
          -5.78998141e-02, -1.86134446e+00, 4.84075695e-01,
          1.25877476e+00, 1.18494302e-01, 1.05102289e+00,
          -1.02458715e+00, -1.03124917e+00, 1.00481308e+00,
          -1.04001164e+00, -1.70771599e-01, -1.01043570e+00,
          -3.66833210e-01, 1.03687155e+00, 3.40397567e-01,
          -7.61884511e-01, 7.61885107e-01 ]
      - [ 1.27168044e-01, -1.53107858e+00, -1.50719512e+00,
          4.11239862e-02, 2.94036686e-01, -4.80834655e-02,
          -4.80834655e-02, 3.80080760e-01, 3.60942304e-01,
          7.40074039e-01, 7.40074039e-01, 3.60942304e-01, 2.22544089e-01,
          -1.70348346e-01, -1.46464765e-01, 1.84267178e-01,
          -2.86998153e+00, 5.77950656e-01, 2.20203257e+00,
          8.99982825e-02, 1.00469112e+00, -1.00943649e+00,
          -9.61669326e-01, 9.66413915e-01, 1.00342584e+00,
          9.55658436e-01, -1.15795720e+00, -1.13407397e+00,
          1.15321207e+00, 1.13881886e+00, 1.38398111e+00,
          -1.38398099e+00 ]
      - [ -1.79033265e-01, -5.49822986e-01, -5.42552590e-01,
          -1.93574041e-01, 3.31143662e-02, -2.10670814e-01,
          -2.10670814e-01, 4.25658405e-01, 3.39095071e-02,
          8.63358099e-03, 7.73614496e-02, 4.94386286e-01,
          -1.09056057e-02, -8.09398368e-02, 4.76153523e-01,
          4.28952813e-01, -1.46498287e+00, 3.74311879e-02,
          6.14290774e-01, 8.13260913e-01, -1.22914992e-01,
          -8.32800090e-01, -1.99708447e-01, 1.15542328e+00,
          1.16610184e-01, -4.06516880e-01, -9.06412780e-01,
          -5.21139026e-01, -4.93022539e-02, 1.47685409e+00,
          -3.35346609e-01, 3.35346937e-01 ]
      - [ 6.97172284e-02, -1.71111298e+00, -1.68693113e+00,
          2.60909319e-01, 3.29778165e-01, -2.60202363e-02,
          -3.34020555e-01, 4.46586251e-01, 3.43919486e-01,
          6.00869298e-01, 3.44202340e-01, 1.89919382e-01, 3.48727584e-01,
          2.25272954e-01, 2.49454811e-01, 3.48727584e-01,
          -3.06741762e+00, 4.16323543e-01, 1.47891045e+00,
          1.17218328e+00, 1.09214258e+00, -9.10990715e-01,
          -1.42729473e+00, 1.24614215e+00, 7.36626983e-01,
          8.76485527e-01, -1.33763742e+00, -1.31345570e+00,
          1.51878953e+00, 1.13230419e+00, 5.85030913e-01,
          -5.85031569e-01 ]
      - [ -1.46389171e-01, -8.17920327e-01, -8.04753065e-01,
          -1.72723740e-01, 1.22688085e-01, -3.09508473e-01,
          -4.21972513e-01, 7.93134809e-01, 1.28574565e-01,
          5.34436591e-02, -3.86188567e-01, 3.33054662e-01,
          2.24773169e-01, 1.84187010e-01, 8.92586529e-01, 3.27013195e-01,
          -1.94178629e+00, 1.84341848e-01, 1.28884450e-01,
          1.62855995e+00, 3.29646707e-01, -8.89798164e-01,
          -7.20327616e-01, 1.28047872e+00, -5.15072882e-01,
          -3.16479504e-01, -1.15112984e+00, -6.06314480e-01,
          5.90978503e-01, 1.16646588e+00, -1.06422579e+00,
          1.06422579e+00 ]
      - [ -1.04362361e-01, -1.56673074e+00, 1.64010469e-03,
          3.85855511e-02, -3.79813351e-02, -9.09308136e-01,
          -3.24395299e-01, 2.15975672e-01, 2.79680379e-02,
          4.39979404e-01, -2.49382138e-01, 6.97474703e-02,
          2.63884038e-01, 1.62378919e+00, 3.30265164e-01, 1.80325031e-01,
          -1.63086724e+00, -1.05570912e+00, 2.88312703e-01,
          2.39826345e+00, 1.49508491e-01, -4.12270367e-01,
          -2.41872221e-01, 5.04633367e-01, -1.08272755e+00,
          4.18053418e-01, -2.61838269e+00, -6.81939125e-02,
          2.35562086e+00, 3.30955803e-01, -1.04310608e+00,
          1.04310572e+00 ]
      - [ -9.64826345e-02, 0., 6.94426754e-03, 3.40269089e-01,
          -2.92745471e-01, -4.27751362e-01, -3.43256325e-01,
          9.66766104e-02, -2.78856963e-01, -1.98590532e-01,
          -1.98590532e-01, 2.79321428e-03, -4.09285016e-02,
          5.06931543e-01, 5.13875782e-01, 4.09711778e-01, 2.50730783e-01,
          -9.67076540e-01, -6.73244953e-01, 1.38959062e+00,
          -7.09013641e-01, -1.19410381e-01, -2.10268237e-02,
          8.49450529e-01, -3.13112706e-01, -2.42506385e-01,
          -8.16979527e-01, 1.00633696e-01, -1.14445081e-02,
          7.27790236e-01, -1.16818881e+00, 1.16818905e+00 ]
      - [ -2.85484314e-01, -1.10650170e+00, -1.09040332e+00,
          6.95945174e-02, 9.24180448e-01, -1.66203886e-01,
          -1.80035159e-01, 5.73444963e-02, 9.56377149e-01,
          4.89524126e-01, 4.89524126e-01, 7.11757243e-02,
          -1.56697303e-01, 4.10175286e-02, -1.91846982e-01,
          7.84342885e-02, -2.41279483e+00, 6.35285914e-01,
          2.00660110e+00, -2.29092717e-01, 1.43837583e+00,
          -7.42164016e-01, -9.72761273e-01, 2.76548892e-01,
          1.16270162e-01, 2.22385973e-01, -6.34009540e-01,
          -1.14349949e+00, 1.33022153e+00, 4.47287440e-01,
          6.32809162e-01, -6.32809758e-01 ]
      - [ -1.47800341e-01, -2.18539804e-01, -1.35458549e-02,
          3.09748530e-01, 2.58274317e-01, -3.66039097e-01,
          -5.51466823e-01, 3.25100198e-02, 2.17937738e-01,
          -1.77300200e-01, -3.62727880e-01, -1.38468845e-02,
          -3.76273766e-02, 2.49544755e-01, 4.47916269e-01,
          3.72962534e-01, -7.01374635e-02, -6.26721561e-01,
          -3.35937262e-01, 1.03279614e+00, 2.90784299e-01,
          -5.12334406e-01, -4.79824364e-01, 7.01374114e-01,
          -5.03604770e-01, -4.56645876e-01, -4.74104941e-01,
          -2.22754166e-01, 2.52554923e-01, 4.44303960e-01,
          -1.45753396e+00, 1.45753396e+00 ]
      - [ -7.35248998e-02, -5.72000325e-01, -4.84314591e-01,
          1.32437214e-01, 5.40106952e-01, -5.18739700e-01,
          -6.71273112e-01, 3.18891466e-01, 5.55318236e-01,
          -1.34286135e-01, -2.71566212e-01, 3.87531489e-01,
          1.78270545e-02, 2.46333033e-01, 3.11138749e-01, 2.16120511e-01,
          -9.97402608e-01, -3.31014246e-01, 5.36997259e-01,
          7.91419387e-01, 1.03972733e+00, -9.78693068e-01,
          -1.11601520e+00, 1.05498040e+00, -6.47710443e-01,
          -6.55295193e-01, -6.24157906e-01, -7.04258919e-01,
          6.85192227e-01, 6.43224478e-01, -1.59586513e+00,
          1.59586513e+00 ]
      - [ -9.76393521e-02, -7.11124316e-02, -6.44072369e-02,
          -1.04584977e-01, 2.61529177e-01, -4.96344447e-01,
          -4.96344447e-01, 2.74939537e-01, 2.29686171e-01,
          -2.62143612e-01, -2.62143612e-01, 2.42615700e-01,
          -2.46035345e-02, 4.50690359e-01, 4.50930804e-01,
          -3.10683008e-02, -3.37743968e-01, -4.56220180e-01,
          -5.19853607e-02, 8.45949352e-01, 3.68972450e-01,
          -3.78910154e-01, -3.71964514e-01, 3.81901860e-01,
          -8.87195706e-01, -8.87676656e-01, -4.03567046e-01,
          -3.90397102e-01, 3.93629432e-01, 4.00334567e-01,
          -1.51697612e+00, 1.51697612e+00 ]
      - [ -1.77605137e-01, -8.67752358e-02, 5.28668799e-03,
          2.59047717e-01, 1.68695942e-01, -5.08956313e-01,
          -2.95355797e-01, 9.24940556e-02, 1.99294329e-01,
          -3.27820629e-01, -1.80970237e-01, 2.57438533e-02,
          -1.55336678e-01, 2.79127926e-01, 3.91214937e-01,
          3.11914593e-01, -4.59257208e-05, -5.43122113e-01,
          -2.83752650e-01, 8.26920748e-01, 3.50484736e-02,
          -6.44424260e-01, -7.98243880e-02, 6.89200103e-01,
          -5.55617154e-01, -5.19465387e-01, -6.04640722e-01,
          6.14726916e-02, -4.73509589e-03, 5.47903121e-01,
          -1.31310296e+00, 1.31310320e+00 ]
      - [ -3.33027542e-02, 0., -1.70725644e-01, -3.20587873e-01,
          -7.79423956e-03, -9.55386609e-02, -1.01006436e+00,
          -9.20352116e-02, -1.34903610e-01, -5.13830245e-01,
          3.72116536e-01, 1.65175185e-01, -1.84503391e-01,
          8.83388102e-01, 1.11276746e+00, 2.98386030e-02,
          -5.24616122e-01, -1.20543230e+00, -1.11442074e-01,
          1.84149086e+00, -3.60503733e-01, 2.74019271e-01,
          3.04094076e-01, -2.17609793e-01, 2.73113817e-01,
          -2.02898598e+00, -1.36635557e-01, -1.59341311e+00,
          5.01510948e-02, 1.67989767e+00, -1.24731672e+00,
          1.24731708e+00 ]
      - [ -2.07807094e-01, -2.33692080e-01, 3.97182822e-01,
          -2.13002264e-01, -2.16945842e-01, 1.59519196e-01,
          3.20569694e-01, -3.68857563e-01, 2.90314645e-01,
          3.80527526e-01, 3.97763193e-01, 1.62574768e-01,
          -3.11710626e-01, -6.75373077e-02, -1.46017343e-01,
          -3.42881709e-01, -2.57318646e-01, -1.05714478e-01,
          1.23118019e+00, -8.68146956e-01, -4.46148962e-01,
          2.38817319e-01, 9.69498456e-01, -7.62166798e-01,
          6.59357430e-03, 1.76384360e-01, -4.98925805e-01,
          1.35892704e-01, 2.91594177e-01, 7.14390650e-02, 1.25837958e+00,
          -1.25837982e+00 ]
      - [ -2.47671157e-01, -2.90005296e-01, 7.75013864e-02,
          -2.43801326e-01, -9.85799283e-02, 2.65155882e-01,
          2.61286020e-01, -2.86369801e-01, 2.51145214e-01,
          3.73913080e-01, 3.53162706e-01, 1.76883414e-01,
          -2.08972543e-01, -5.41780703e-02, -7.40586370e-02,
          -2.55410910e-01, -7.03976393e-01, 1.41492248e-01,
          1.15510440e+00, -5.92620134e-01, -3.04078430e-01,
          2.94885546e-01, 6.17891550e-01, -6.08698606e-01,
          1.15236543e-01, 1.82425231e-01, -3.71100456e-01,
          -1.91383749e-01, 3.61907691e-01, 2.00576693e-01,
          1.25351763e+00, -1.25351775e+00 ]
      - [ -4.82555687e-01, 1.21058837e-01, 5.79808056e-01, 0.,
          -2.88935453e-01, 5.09721398e-01, 3.26683074e-01,
          -6.32314324e-01, 3.81171592e-02, 7.08705708e-02,
          -1.62255168e-02, 3.73758376e-01, -6.48954213e-01,
          -2.99517304e-01, 3.48485053e-01, 0., 2.18311220e-01,
          -8.48453194e-02, 4.66520607e-01, -5.99986553e-01,
          -1.38232827e+00, 4.02133495e-01, 1.23875070e+00,
          -2.58555949e-01, 1.09402491e-02, -2.51400620e-01,
          -1.40710875e-01, 2.74176806e-01, -8.39483857e-01,
          7.06017971e-01, 8.91049564e-01, -8.91049385e-01 ]
      - [ -2.69590288e-01, -2.21616760e-01, 1.62606820e-01,
          -2.78576642e-01, -9.94786844e-02, 2.96113938e-01,
          2.96113938e-01, -2.96549320e-01, 2.82525569e-01,
          3.58032614e-01, 3.74197155e-01, 2.19675541e-01,
          -2.47124434e-01, -3.23508322e-01, -5.69660822e-03,
          -2.47124434e-01, -6.07176840e-01, 1.96199879e-01,
          1.23443091e+00, -8.23453844e-01, -3.33667874e-01,
          1.09021403e-01, 8.27221334e-01, -6.02574766e-01,
          1.53596371e-01, 1.28445521e-01, -2.94571847e-01,
          -1.16405174e-01, 6.99254423e-02, 3.41051787e-01,
          1.32445753e+00, -1.32445776e+00 ]
      - [ -2.66118884e-01, -2.65749842e-01, 3.97550255e-01,
          -2.17733622e-01, -9.23096910e-02, 2.63003916e-01,
          2.71068126e-01, -2.82247275e-01, 2.19888076e-01,
          3.13185424e-01, 3.31050426e-01, 1.46691516e-01,
          -2.21765727e-01, -3.22568327e-01, -4.81464937e-02,
          -2.25797832e-01, -3.52052093e-01, 1.59515068e-01,
          1.01081550e+00, -8.18278432e-01, -3.60306233e-01,
          -1.21288095e-02, 9.51522350e-01, -5.79087198e-01,
          1.02137603e-01, 1.44754231e-01, -3.61174524e-01,
          1.68637499e-01, -1.12605123e-02, 2.03797758e-01,
          1.17830777e+00, -1.17830789e+00 ]
      - [ 0., 2.41049051e-01, 9.23388362e-01, -1.08524883e+00,
          -5.67286611e-01, -5.62455058e-02, 1.60804302e-01,
          -7.34629989e-01, 5.18231869e-01, 2.36375093e-01,
          5.02524495e-01, 7.56921351e-01, 0., -6.67845458e-02,
          3.06238115e-01, -1.13533711e+00, 7.91884288e-02,
          -1.19735765e+00, 2.01405287e+00, -8.95883620e-01,
          -4.90547456e-02, 3.54394019e-01, 1.89295530e+00,
          -2.19829440e+00, -6.89058006e-01, -6.88069463e-01,
          -3.82483155e-01, -7.35686302e-01, 6.87822461e-01,
          4.30347174e-01, 8.43458533e-01, -8.43458891e-01 ]
      - [ -3.09544563e-01, -1.05051391e-01, 3.22923154e-01,
          -2.96465218e-01, -1.61347166e-01, 2.18300134e-01,
          2.22659901e-01, -3.31343472e-01, 2.76145011e-01,
          3.87521893e-01, 4.16849226e-01, 2.42862761e-01,
          -2.48507604e-01, -3.31343472e-01, -2.89928596e-02,
          -2.74666280e-01, -3.88138026e-01, -5.17306402e-02,
          1.32337892e+00, -8.83510292e-01, -4.43254352e-01,
          1.69427171e-01, 9.33439493e-01, -6.59612179e-01,
          5.09384833e-02, 6.52090013e-02, -3.57643068e-01,
          -8.22256580e-02, 8.38158354e-02, 3.56052965e-01,
          1.24533105e+00, -1.24533105e+00 ]
      - [ -1.72437191e-01, -2.20426142e-01, 1.11257406e-02,
          -1.68918073e-01, -1.50768280e-01, 1.86897352e-01,
          1.86897352e-01, -2.35781476e-01, 6.47036359e-02,
          3.05216759e-01, 3.11648756e-01, 5.71775138e-02,
          -1.68918073e-01, -3.51912645e-03, 1.76576778e-01,
          -1.79475456e-01, -5.50655663e-01, -1.27549702e-02,
          7.38746643e-01, -1.75335869e-01, -4.27419901e-01,
          2.68168807e-01, 6.86248660e-01, -5.26997507e-01,
          1.46633446e-01, 1.54277936e-01, -3.56734246e-01,
          -2.06676424e-01, 1.97483167e-01, 3.65927607e-01,
          9.90660191e-01, -9.90660250e-01 ]
      - [ -2.20338538e-01, -8.30477923e-02, 2.16191143e-01,
          -2.20338538e-01, -1.22070625e-01, 1.70474097e-01,
          1.70474097e-01, -2.59221822e-01, 2.01751679e-01,
          3.66582543e-01, 3.74894738e-01, 1.60190687e-01,
          -2.04137161e-01, -3.24027240e-01, -3.29609551e-02,
          -1.94416344e-01, -3.07533711e-01, -4.03442122e-02,
          1.10341966e+00, -7.55541682e-01, -3.44794720e-01,
          1.29981622e-01, 7.28599072e-01, -5.13786077e-01,
          1.30613998e-01, 1.12580970e-01, -2.54982829e-01,
          -9.28950533e-02, 4.01698165e-02, 3.07708204e-01,
          1.08242548e+00, -1.08242559e+00 ]
      - [ -3.56238246e-01, -2.11949751e-01, 9.89603698e-02,
          -2.84990579e-01, -1.20818943e-01, 2.05731168e-01,
          2.05731168e-01, -2.60053903e-01, 1.72557414e-01,
          2.98175722e-01, 3.06614190e-01, 1.30364969e-01,
          -1.99493393e-01, -1.06871463e-02, 2.25590363e-01,
          -1.99493393e-01, -7.54218221e-01, 3.05895582e-02,
          9.07712340e-01, -1.84083566e-01, -5.03993154e-01,
          2.81269997e-01, 8.36896181e-01, -6.14172935e-01,
          -4.33862321e-02, 1.94229055e-02, -4.83275771e-01,
          -2.40352944e-01, 2.60552615e-01, 4.63076234e-01,
          1.01625228e+00, -1.01625228e+00 ]
      - [ -3.79290938e-01, -2.82119960e-01, 1.66367292e-02,
          -3.03432763e-01, -1.34262875e-01, 1.41042128e-01,
          1.41042128e-01, -3.79290953e-02, 1.24150164e-01,
          2.23868459e-01, 2.30902955e-01, 3.16552222e-01,
          -2.27574572e-01, -1.13787288e-02, 1.81794196e-01, 0.,
          -9.48206842e-01, 1.09892309e-01, 8.95473838e-01,
          -5.71590960e-02, -6.16978347e-01, 7.14119077e-02,
          5.70376039e-01, -2.48095989e-02, -7.34587107e-03,
          -1.66096777e-01, -6.54631615e-01, -1.83683023e-01,
          1.09065346e-01, 7.29249418e-01, 7.36855567e-01,
          -7.36855507e-01 ]
      - [ -2.10859507e-01, -2.47589424e-01, 2.48535220e-02,
          -2.04469815e-01, -1.11548543e-01, 2.70765990e-01,
          2.70765990e-01, -2.07664654e-01, 1.48364484e-01,
          3.63257289e-01, 2.27057323e-01, 1.29694179e-01,
          -1.72521412e-01, -3.19484086e-03, -7.56356046e-02,
          -2.01274976e-01, -6.38065219e-01, 2.22318813e-01,
          8.68373334e-01, -4.52626795e-01, -3.46565008e-01,
          3.83239031e-01, 4.47041273e-01, -4.83715236e-01,
          8.56888071e-02, 2.57032067e-01, -2.99231470e-01,
          -1.16514973e-01, 3.35905522e-01, 7.98410326e-02,
          1.13184655e+00, -1.13184667e+00 ]
      - [ -2.66866177e-01, -1.99851528e-01, 5.40987626e-02,
          -2.66866177e-01, 1.05719239e-01, 1.83426514e-01,
          1.83426514e-01, -2.66866181e-02, 3.26022148e-01,
          2.39859924e-01, 2.46914089e-01, 2.90751249e-01,
          -2.66866177e-01, -2.66866177e-01, -6.93492964e-02,
          -2.66866177e-01, -6.79485142e-01, 4.45885688e-01,
          1.10354745e+00, -8.69947851e-01, -1.01990975e-01,
          -4.34312746e-02, 4.15090114e-01, -2.69667745e-01,
          -1.03391752e-01, -1.10445924e-01, -1.77571997e-01,
          -5.60275167e-02, 3.21497023e-02, 2.01449931e-01,
          8.53626966e-01, -8.53627026e-01 ]
      - [ 0., 4.23288681e-02, 2.02732980e-01, -1.56278983e-01,
          7.35185593e-02, 1.78226814e-01, 1.78226814e-01,
          -2.10498214e-01, 1.90889850e-01, 1.81978509e-01,
          1.86434180e-01, -6.80370163e-03, -2.55149364e-01,
          -2.55149364e-01, -1.55905530e-01, -1.94551393e-01,
          8.87828618e-02, 2.19473988e-01, 5.52498817e-01,
          -8.60755742e-01, 9.25902836e-03, 1.47384793e-01,
          4.11488444e-01, -5.68132341e-01, 1.70109600e-01,
          -5.12230359e-02, 2.94074237e-01, 1.41825806e-02,
          -1.37430400e-01, -1.70826405e-01, 7.24866271e-01,
          -7.24866509e-01 ]
      - [ -5.31380892e-01, -4.12345856e-01, 3.87343056e-02,
          -5.31380892e-01, 1.53606981e-01, 1.66430220e-01,
          2.24882126e-01, 0., 4.24575537e-01, 2.34787434e-01,
          1.99493140e-01, 4.09749717e-01, -3.34769964e-01,
          -1.06276181e-02, 3.13643456e-01, -3.45397592e-01,
          -1.43637335e+00, 5.44919372e-01, 1.26860595e+00,
          -3.77151728e-01, -2.87968397e-01, -2.17558201e-02,
          7.76753008e-01, -4.67028797e-01, -5.10855317e-01,
          -4.06481266e-01, -6.23689592e-01, -2.67764509e-01,
          3.13965291e-01, 5.77488780e-01, 8.25592875e-01,
          -8.25593054e-01 ]
      - [ -2.33111575e-01, -1.94900736e-01, -5.01017459e-02,
          -2.33111575e-01, 4.30550501e-02, 1.37576625e-01,
          1.37576625e-01, -1.70171440e-01, 2.01109722e-01,
          1.93065330e-01, 1.97087526e-01, 1.78206395e-02, 0., 0.,
          1.12621434e-01, -1.58515871e-01, -7.11225629e-01,
          1.48036852e-01, 6.09083235e-01, -4.58944328e-02,
          1.10531924e-02, 1.35741219e-01, 3.97183865e-01,
          -5.43978214e-01, -5.69633208e-02, 9.75303724e-02,
          -2.47380644e-01, -3.15808177e-01, 3.94175053e-01,
          1.69013768e-01, 6.65306091e-01, -6.65306151e-01 ]
      - [ -3.54789913e-01, -2.49546722e-01, 1.49269596e-01,
          -3.54789913e-01, 8.34496394e-02, 1.94776326e-01,
          1.87680528e-01, -2.48352941e-02, 4.58118320e-01,
          2.90497988e-01, 2.80288845e-01, 4.48849827e-01,
          -3.54789913e-01, -3.54789913e-01, -4.45994511e-02,
          -3.54789913e-01, -8.09856951e-01, 4.41071272e-01,
          1.47775495e+00, -1.10896921e+00, -1.68011889e-01,
          -1.19062416e-01, 5.72639465e-01, -2.85565317e-01,
          -2.34514594e-01, -2.31401339e-01, -3.26110691e-01,
          -4.26750816e-02, 3.90363857e-02, 3.29749376e-01,
          9.53243673e-01, -9.53244030e-01 ]
      - [ -3.17750067e-01, -2.25281805e-01, 1.25124246e-01,
          -3.17750067e-01, 4.62127514e-02, 1.09720014e-01,
          2.87660062e-01, -3.17750089e-02, 4.54900116e-01,
          3.71883094e-01, 1.90966532e-01, 3.04552555e-01,
          -3.17750067e-01, -3.17750067e-01, -4.52120304e-02,
          -3.17750067e-01, -7.35657692e-01, 4.11817878e-01,
          1.32230234e+00, -9.98462260e-01, -1.34387314e-01,
          -6.14287890e-02, 5.58538854e-01, -3.62722635e-01,
          -3.34813654e-01, 2.40430348e-02, -3.87099177e-01,
          6.32592291e-02, 1.91283062e-01, 1.32557079e-01, 9.60229635e-01,
          -9.60229516e-01 ]
      - [ -1.55286372e-01, -1.54828027e-01, 8.43549818e-02,
          -1.60734996e-01, -7.29040429e-02, 2.38515690e-01,
          2.38515690e-01, -1.77080929e-01, 1.52393401e-01,
          2.91667491e-01, 2.98311442e-01, 1.19173504e-01,
          -1.68907970e-01, -2.72432208e-01, -8.64009857e-02,
          -1.74356610e-01, -3.86494428e-01, 2.27046460e-01,
          8.61545861e-01, -7.02097774e-01, -2.44704992e-01,
          1.02922909e-01, 5.34781158e-01, -3.92999023e-01,
          2.07184151e-01, 2.00540185e-01, -1.44502744e-01,
          -1.49453087e-02, 2.72065913e-03, 1.56727433e-01,
          1.06701028e+00, -1.06701028e+00 ]
      - [ -3.08185220e-01, -2.32528448e-01, 5.41709177e-02,
          -3.08185220e-01, -1.18996620e-01, 1.76019207e-01,
          1.76019207e-01, -3.85231525e-02, 1.40088454e-01,
          2.28173241e-01, 2.74660259e-01, 3.58374208e-01,
          -2.46548206e-01, -3.42856079e-01, 1.88317552e-01, 0.,
          -7.94728041e-01, 1.94518685e-01, 1.00129616e+00,
          -4.01086718e-01, -5.33641577e-01, -1.71192124e-01,
          6.93167984e-01, 1.16658174e-02, 1.42494217e-01,
          -1.50540978e-01, -4.83691186e-01, -1.16518289e-01,
          -2.21142545e-01, 8.21352124e-01, 8.54871869e-01,
          -8.54871750e-01 ]
      - [ -2.07099661e-01, -2.24651739e-01, 7.81521946e-02,
          -1.64461493e-01, -8.65880251e-02, 3.05992991e-01,
          2.51172483e-01, -2.13190824e-01, 1.89096719e-01,
          3.42826933e-01, 3.05554420e-01, 1.19630344e-01,
          -1.91871747e-01, -2.74102509e-01, -3.85883301e-02,
          -1.91871747e-01, -5.18060803e-01, 2.57386655e-01,
          9.57108438e-01, -6.96434319e-01, -2.96462715e-01,
          1.50065735e-01, 5.96290767e-01, -4.49893743e-01,
          2.12575987e-01, 2.37666205e-01, -2.12346390e-01,
          -4.83275913e-02, 6.59494251e-02, 1.94724753e-01,
          1.20554686e+00, -1.20554698e+00 ]
      - [ -4.52921003e-01, -3.17555219e-01, 1.95409775e-01,
          -4.52921003e-01, -1.78181425e-01, 3.54823679e-01,
          2.92547047e-01, -5.66151254e-02, 2.87838012e-01,
          4.29185361e-01, 1.99989334e-01, 3.29823077e-01,
          -3.05721670e-01, -4.30274934e-01, 3.53680670e-01,
          -2.49106556e-01, -1.02798748e+00, 4.12574202e-01,
          1.24683595e+00, -6.31422460e-01, -6.48986042e-01,
          3.61788757e-02, 1.04162693e+00, -4.28819567e-01,
          -1.47214487e-01, -3.69102471e-02, -5.93833983e-01,
          -2.15793028e-02, -1.89732034e-02, 6.34386718e-01,
          1.27654541e+00, -1.27654552e+00 ]
      - [ -3.12330425e-01, -2.86183774e-01, 4.93997693e-01,
          -2.65480876e-01, -1.98972285e-01, 1.78584635e-01,
          3.24338824e-01, -3.27946961e-01, 1.73778489e-01,
          4.17316347e-01, 2.56506115e-01, 1.29331946e-01,
          -2.65480876e-01, -5.20550692e-03, -2.59504728e-02,
          -2.86302894e-01, -3.69997352e-01, -2.39957515e-02,
          9.76932883e-01, -5.82939744e-01, -6.03005052e-01,
          3.04511666e-01, 1.04889226e+00, -7.50398755e-01,
          -1.63542554e-01, 2.10693419e-01, -6.18901908e-01,
          2.24908695e-01, 3.20408493e-01, 7.35848472e-02, 1.17674589e+00,
          -1.17674613e+00 ]
      - [ -5.22575438e-01, 1.49501935e-01, 7.16035604e-01, 0.,
          -6.11297786e-01, 8.51324573e-02, 1.83115348e-01,
          -4.35479522e-01, -8.41066986e-02, 2.11028844e-01,
          2.26765886e-01, 1.63817659e-01, -5.22575438e-01, 0.,
          4.40637261e-01, 0., 3.42962086e-01, -7.78529465e-01,
          5.17505586e-01, -8.19381401e-02, -1.74055541e+00,
          4.45663214e-01, 1.56655419e+00, -2.71661907e-01,
          -2.10677028e-01, -1.28431320e-01, -8.99238884e-01,
          4.63671416e-01, -3.95653367e-01, 8.31220925e-01,
          7.06042349e-01, -7.06042349e-01 ]
      - [ -2.28075966e-01, -1.66471660e-01, 6.69761971e-02,
          -1.48249373e-01, 7.84874409e-02, 2.05218479e-01,
          2.02367529e-01, -2.13821203e-01, 2.95723677e-01,
          2.82754332e-01, 2.89239019e-01, 8.08395594e-02,
          -2.28075966e-01, -2.33777851e-01, -1.03524394e-01,
          -1.79609820e-01, -4.75820810e-01, 2.72252291e-01,
          9.48556602e-01, -7.44988084e-01, -8.19408298e-02,
          8.77232924e-02, 4.55058396e-01, -4.60840821e-01,
          8.67716819e-02, 1.08796522e-01, -1.10841721e-01,
          -9.27268565e-02, 1.16624191e-01, 8.69444609e-02,
          9.79579329e-01, -9.79579508e-01 ]
      - [ -1.24452293e+00, -2.67810822e-01, 1.43516588e+00, 0.,
          1.18830428e-01, 2.38675326e-01, -2.52122492e-01,
          -1.05170953e+00, 1.07397997e+00, 4.47672576e-01,
          -1.04273306e-02, 2.96993494e-01, -1.08676648e+00,
          -5.60911715e-01, 8.62953842e-01, 0., -7.71680772e-02,
          -9.46326017e-01, 1.80821872e+00, -7.84724593e-01,
          -1.13847911e+00, -1.42374784e-01, 2.03556991e+00,
          -7.54716098e-01, -1.01627493e+00, -8.91216338e-01,
          -1.15482819e+00, 1.31333649e-01, -1.26025766e-01,
          1.14952004e+00, 4.23798144e-01, -4.23798501e-01 ]
      - [ -5.54247081e-01, -3.04212242e-01, 4.39091891e-01,
          -3.60905081e-01, 1.30690157e-01, 2.58040875e-01,
          1.29146218e-01, -3.86684000e-01, 7.55959451e-01,
          4.15342748e-01, 3.18194658e-01, 5.19889593e-01,
          -5.54247081e-01, -4.96244490e-01, 7.68683851e-02,
